<?xml version="1.0"?>
<opencv_storage>
<stage6>
  <maxWeakCount>27</maxWeakCount>
  <stageThreshold>-1.3342152833938599e+00</stageThreshold>
  <weakClassifiers>
    <_>
      <internalNodes>
        0 -1 12621 -1.8273323774337769e-02</internalNodes>
      <leafValues>
        -1.7757008969783783e-01 -6.7389059066772461e-01</leafValues></_>
    <_>
      <internalNodes>
        0 -1 38597 -7.2865351103246212e-03</internalNodes>
      <leafValues>
        2.5504681468009949e-01 -3.2555621862411499e-01</leafValues></_>
    <_>
      <internalNodes>
        0 -1 99 -1.4469211921095848e-02</internalNodes>
      <leafValues>
        3.7610599398612976e-01 -1.4009153842926025e-01</leafValues></_>
    <_>
      <internalNodes>
        0 -1 161507 1.7921442165970802e-02</internalNodes>
      <leafValues>
        -1.5692766010761261e-01 3.6154937744140625e-01</leafValues></_>
    <_>
      <internalNodes>
        0 -1 10827 -5.5658505298197269e-03</internalNodes>
      <leafValues>
        1.9650161266326904e-01 -2.8300324082374573e-01</leafValues></_>
    <_>
      <internalNodes>
        0 -1 98085 -2.8075312729924917e-04</internalNodes>
      <leafValues>
        3.4302374720573425e-01 -1.4390072226524353e-01</leafValues></_>
    <_>
      <internalNodes>
        0 -1 133920 2.5314013473689556e-03</internalNodes>
      <leafValues>
        -1.6284841299057007e-01 3.6433410644531250e-01</leafValues></_>
    <_>
      <internalNodes>
        0 -1 152337 -1.7207933589816093e-02</internalNodes>
      <leafValues>
        3.1890270113945007e-01 -1.7157568037509918e-01</leafValues></_>
    <_>
      <internalNodes>
        0 -1 144279 3.3320128917694092e-02</internalNodes>
      <leafValues>
        -1.3394400477409363e-01 4.2080581188201904e-01</leafValues></_>
    <_>
      <internalNodes>
        0 -1 159769 -1.2103045359253883e-02</internalNodes>
      <leafValues>
        -6.7994987964630127e-01 8.2158140838146210e-02</leafValues></_>
    <_>
      <internalNodes>
        0 -1 148877 -1.2586001539602876e-03</internalNodes>
      <leafValues>
        3.2005289196968079e-01 -1.7220383882522583e-01</leafValues></_>
    <_>
      <internalNodes>
        0 -1 67294 -2.3582344874739647e-04</internalNodes>
      <leafValues>
        2.1584427356719971e-01 -2.2579380869865417e-01</leafValues></_>
    <_>
      <internalNodes>
        0 -1 78006 -4.5165597111918032e-04</internalNodes>
      <leafValues>
        2.4497690796852112e-01 -2.2499439120292664e-01</leafValues></_>
    <_>
      <internalNodes>
        0 -1 8266 -1.1561989784240723e-02</internalNodes>
      <leafValues>
        2.2797685861587524e-01 -2.2112490236759186e-01</leafValues></_>
    <_>
      <internalNodes>
        0 -1 1449 -4.8300318419933319e-02</internalNodes>
      <leafValues>
        2.2968238592147827e-01 -2.3655064404010773e-01</leafValues></_>
    <_>
      <internalNodes>
        0 -1 120609 7.1375695988535881e-03</internalNodes>
      <leafValues>
        8.2136616110801697e-02 -6.1589235067367554e-01</leafValues></_>
    <_>
      <internalNodes>
        0 -1 49878 -2.6148458942770958e-02</internalNodes>
      <leafValues>
        3.5942408442497253e-01 -1.5502637624740601e-01</leafValues></_>
    <_>
      <internalNodes>
        0 -1 126863 -3.9517282857559621e-04</internalNodes>
      <leafValues>
        3.2002261281013489e-01 -1.6515326499938965e-01</leafValues></_>
    <_>
      <internalNodes>
        0 -1 119760 -1.4782844111323357e-02</internalNodes>
      <leafValues>
        -8.2761430740356445e-01 6.6757418215274811e-02</leafValues></_>
    <_>
      <internalNodes>
        0 -1 128028 4.3650390580296516e-03</internalNodes>
      <leafValues>
        -2.2982697188854218e-01 2.1921811997890472e-01</leafValues></_>
    <_>
      <internalNodes>
        0 -1 133168 -6.9407827686518431e-04</internalNodes>
      <leafValues>
        2.8432777523994446e-01 -1.7250391840934753e-01</leafValues></_>
    <_>
      <internalNodes>
        0 -1 154528 2.3737846277072094e-05</internalNodes>
      <leafValues>
        -1.9987855851650238e-01 2.4922941625118256e-01</leafValues></_>
    <_>
      <internalNodes>
        0 -1 155089 5.0997699872823432e-05</internalNodes>
      <leafValues>
        -2.3333570361137390e-01 2.5164961814880371e-01</leafValues></_>
    <_>
      <internalNodes>
        0 -1 62065 -1.1171177774667740e-01</internalNodes>
      <leafValues>
        2.1818006038665771e-01 -2.7346083521842957e-01</leafValues></_>
    <_>
      <internalNodes>
        0 -1 160930 -4.6215754991862923e-05</internalNodes>
      <leafValues>
        2.6548543572425842e-01 -2.2853040695190430e-01</leafValues></_>
    <_>
      <internalNodes>
        0 -1 50052 1.7745536565780640e-01</internalNodes>
      <leafValues>
        -8.3194442093372345e-02 7.6558941602706909e-01</leafValues></_>
    <_>
      <internalNodes>
        0 -1 141625 3.4153483284171671e-05</internalNodes>
      <leafValues>
        -2.0414805412292480e-01 2.7749770879745483e-01</leafValues></_></weakClassifiers></stage6>
</opencv_storage>
