<?xml version="1.0"?>
<opencv_storage>
<stage10>
  <maxWeakCount>37</maxWeakCount>
  <stageThreshold>-1.3543343544006348e+00</stageThreshold>
  <weakClassifiers>
    <_>
      <internalNodes>
        0 -1 155875 -2.6583438739180565e-02</internalNodes>
      <leafValues>
        -5.0847455859184265e-02 -6.0068261623382568e-01</leafValues></_>
    <_>
      <internalNodes>
        0 -1 5114 -2.9870723374187946e-03</internalNodes>
      <leafValues>
        1.0946409404277802e-01 -3.0651310086250305e-01</leafValues></_>
    <_>
      <internalNodes>
        0 -1 49174 -5.2332412451505661e-03</internalNodes>
      <leafValues>
        2.6835229992866516e-01 -1.5891951322555542e-01</leafValues></_>
    <_>
      <internalNodes>
        0 -1 19823 -6.9148659706115723e-02</internalNodes>
      <leafValues>
        4.0152418613433838e-01 -8.9149646461009979e-02</leafValues></_>
    <_>
      <internalNodes>
        0 -1 141008 -1.3981441035866737e-02</internalNodes>
      <leafValues>
        -1. 3.9660576730966568e-02</leafValues></_>
    <_>
      <internalNodes>
        0 -1 77332 -3.2454305328428745e-03</internalNodes>
      <leafValues>
        -8.5194694995880127e-01 3.9652060717344284e-02</leafValues></_>
    <_>
      <internalNodes>
        0 -1 117868 -4.3615244794636965e-04</internalNodes>
      <leafValues>
        2.3691125214099884e-01 -1.4830537140369415e-01</leafValues></_>
    <_>
      <internalNodes>
        0 -1 91140 -2.8398064896464348e-03</internalNodes>
      <leafValues>
        1.4176204800605774e-01 -2.5480288267135620e-01</leafValues></_>
    <_>
      <internalNodes>
        0 -1 148090 1.2407906353473663e-02</internalNodes>
      <leafValues>
        -1.2245753407478333e-01 2.7509078383445740e-01</leafValues></_>
    <_>
      <internalNodes>
        0 -1 159115 -8.7401346536353230e-04</internalNodes>
      <leafValues>
        2.1200473606586456e-01 -1.9249632954597473e-01</leafValues></_>
    <_>
      <internalNodes>
        0 -1 155459 -2.4523293599486351e-02</internalNodes>
      <leafValues>
        5.1435500383377075e-01 -7.3230907320976257e-02</leafValues></_>
    <_>
      <internalNodes>
        0 -1 71198 -2.8331577777862549e-03</internalNodes>
      <leafValues>
        2.3425313830375671e-01 -1.4798538386821747e-01</leafValues></_>
    <_>
      <internalNodes>
        0 -1 81166 2.1713782101869583e-02</internalNodes>
      <leafValues>
        -5.8673765510320663e-02 6.0018062591552734e-01</leafValues></_>
    <_>
      <internalNodes>
        0 -1 99477 -6.5726705361157656e-04</internalNodes>
      <leafValues>
        2.0774057507514954e-01 -1.8326100707054138e-01</leafValues></_>
    <_>
      <internalNodes>
        0 -1 104791 6.7055434919893742e-04</internalNodes>
      <leafValues>
        -1.6725938022136688e-01 2.2952133417129517e-01</leafValues></_>
    <_>
      <internalNodes>
        0 -1 106232 1.0328651219606400e-01</internalNodes>
      <leafValues>
        -5.5870860815048218e-02 6.8217486143112183e-01</leafValues></_>
    <_>
      <internalNodes>
        0 -1 22179 -2.6389090344309807e-03</internalNodes>
      <leafValues>
        2.5781089067459106e-01 -1.8611888587474823e-01</leafValues></_>
    <_>
      <internalNodes>
        0 -1 12821 5.1696361042559147e-03</internalNodes>
      <leafValues>
        -6.6816009581089020e-02 5.8593726158142090e-01</leafValues></_>
    <_>
      <internalNodes>
        0 -1 140157 -1.6776796430349350e-02</internalNodes>
      <leafValues>
        2.9139664769172668e-01 -1.3097342848777771e-01</leafValues></_>
    <_>
      <internalNodes>
        0 -1 81653 2.8590118512511253e-02</internalNodes>
      <leafValues>
        6.6867366433143616e-02 -5.8981674909591675e-01</leafValues></_>
    <_>
      <internalNodes>
        0 -1 162233 -3.6957021802663803e-04</internalNodes>
      <leafValues>
        -2.8467857837677002e-01 1.2995226681232452e-01</leafValues></_>
    <_>
      <internalNodes>
        0 -1 42751 5.0432093441486359e-02</internalNodes>
      <leafValues>
        -7.1411587297916412e-02 5.6615662574768066e-01</leafValues></_>
    <_>
      <internalNodes>
        0 -1 129750 -1.2145271524786949e-02</internalNodes>
      <leafValues>
        -7.8044015169143677e-01 5.5032588541507721e-02</leafValues></_>
    <_>
      <internalNodes>
        0 -1 136868 -7.3852890636771917e-04</internalNodes>
      <leafValues>
        1.6009542346000671e-01 -2.0598210394382477e-01</leafValues></_>
    <_>
      <internalNodes>
        0 -1 157510 -7.5411358848214149e-03</internalNodes>
      <leafValues>
        -7.3059290647506714e-01 4.5569535344839096e-02</leafValues></_>
    <_>
      <internalNodes>
        0 -1 12591 -1.0738272685557604e-03</internalNodes>
      <leafValues>
        2.0527477562427521e-01 -1.7514778673648834e-01</leafValues></_>
    <_>
      <internalNodes>
        0 -1 154100 -1.2820528354495764e-03</internalNodes>
      <leafValues>
        3.1401279568672180e-01 -1.1857184767723083e-01</leafValues></_>
    <_>
      <internalNodes>
        0 -1 11116 3.4122642129659653e-02</internalNodes>
      <leafValues>
        -4.2906600981950760e-02 9.4737815856933594e-01</leafValues></_>
    <_>
      <internalNodes>
        0 -1 70767 -6.3363229855895042e-03</internalNodes>
      <leafValues>
        -5.6167626380920410e-01 8.3367869257926941e-02</leafValues></_>
    <_>
      <internalNodes>
        0 -1 157296 -3.4900166792795062e-04</internalNodes>
      <leafValues>
        2.1326191723346710e-01 -2.0312140882015228e-01</leafValues></_>
    <_>
      <internalNodes>
        0 -1 139739 -2.9061617329716682e-02</internalNodes>
      <leafValues>
        -7.4831634759902954e-01 5.2303265780210495e-02</leafValues></_>
    <_>
      <internalNodes>
        0 -1 145191 -1.3717763125896454e-02</internalNodes>
      <leafValues>
        2.6466581225395203e-01 -1.6969709098339081e-01</leafValues></_>
    <_>
      <internalNodes>
        0 -1 93119 -2.0187268964946270e-03</internalNodes>
      <leafValues>
        -6.6169232130050659e-01 6.9872468709945679e-02</leafValues></_>
    <_>
      <internalNodes>
        0 -1 25462 -2.2006246726959944e-03</internalNodes>
      <leafValues>
        1.9334216415882111e-01 -2.1976117789745331e-01</leafValues></_>
    <_>
      <internalNodes>
        0 -1 156580 7.8665073961019516e-03</internalNodes>
      <leafValues>
        -1.0048489272594452e-01 4.1145437955856323e-01</leafValues></_>
    <_>
      <internalNodes>
        0 -1 97909 -8.7434111628681421e-04</internalNodes>
      <leafValues>
        2.3664176464080811e-01 -1.7544673383235931e-01</leafValues></_>
    <_>
      <internalNodes>
        0 -1 80477 3.1452062539756298e-03</internalNodes>
      <leafValues>
        5.2636366337537766e-02 -7.2894954681396484e-01</leafValues></_></weakClassifiers></stage10>
</opencv_storage>
