<?xml version="1.0"?>
<opencv_storage>
<stage7>
  <maxWeakCount>31</maxWeakCount>
  <stageThreshold>-1.2316720485687256e+00</stageThreshold>
  <weakClassifiers>
    <_>
      <internalNodes>
        0 -1 161367 6.1021479777991772e-03</internalNodes>
      <leafValues>
        -7.0508056879043579e-01 -2.9192546010017395e-01</leafValues></_>
    <_>
      <internalNodes>
        0 -1 26611 -9.3646580353379250e-03</internalNodes>
      <leafValues>
        1.3047720491886139e-01 -3.6867505311965942e-01</leafValues></_>
    <_>
      <internalNodes>
        0 -1 25663 -2.2655914071947336e-03</internalNodes>
      <leafValues>
        2.5497114658355713e-01 -2.2493758797645569e-01</leafValues></_>
    <_>
      <internalNodes>
        0 -1 94798 1.3735791668295860e-02</internalNodes>
      <leafValues>
        6.5903224050998688e-02 -7.9887545108795166e-01</leafValues></_>
    <_>
      <internalNodes>
        0 -1 159534 9.9573358893394470e-03</internalNodes>
      <leafValues>
        -2.5986433029174805e-01 2.0297797024250031e-01</leafValues></_>
    <_>
      <internalNodes>
        0 -1 15663 -1.1428810656070709e-02</internalNodes>
      <leafValues>
        3.2984012365341187e-01 -1.5563185513019562e-01</leafValues></_>
    <_>
      <internalNodes>
        0 -1 13047 2.3555183783173561e-02</internalNodes>
      <leafValues>
        -7.0790208876132965e-02 7.4722331762313843e-01</leafValues></_>
    <_>
      <internalNodes>
        0 -1 155384 -5.9741444885730743e-02</internalNodes>
      <leafValues>
        2.8891369700431824e-01 -1.6439527273178101e-01</leafValues></_>
    <_>
      <internalNodes>
        0 -1 161123 -1.6810529632493854e-04</internalNodes>
      <leafValues>
        2.3358978331089020e-01 -2.0914667844772339e-01</leafValues></_>
    <_>
      <internalNodes>
        0 -1 91961 -4.9825233872979879e-04</internalNodes>
      <leafValues>
        2.4236398935317993e-01 -1.8910232186317444e-01</leafValues></_>
    <_>
      <internalNodes>
        0 -1 157371 9.3780914321541786e-03</internalNodes>
      <leafValues>
        -1.1039370298385620e-01 4.3841856718063354e-01</leafValues></_>
    <_>
      <internalNodes>
        0 -1 106601 -2.6226772461086512e-03</internalNodes>
      <leafValues>
        -4.0961533784866333e-01 1.2317439913749695e-01</leafValues></_>
    <_>
      <internalNodes>
        0 -1 120380 -1.4636102132499218e-03</internalNodes>
      <leafValues>
        2.9840117692947388e-01 -1.5954071283340454e-01</leafValues></_>
    <_>
      <internalNodes>
        0 -1 40017 -3.8850419223308563e-02</internalNodes>
      <leafValues>
        3.6112472414970398e-01 -1.2665948271751404e-01</leafValues></_>
    <_>
      <internalNodes>
        0 -1 28714 -2.8404702898114920e-03</internalNodes>
      <leafValues>
        2.4578455090522766e-01 -2.0000283420085907e-01</leafValues></_>
    <_>
      <internalNodes>
        0 -1 85755 -4.4109180569648743e-02</internalNodes>
      <leafValues>
        -6.1352282762527466e-01 7.9392790794372559e-02</leafValues></_>
    <_>
      <internalNodes>
        0 -1 139487 -1.7809586599469185e-02</internalNodes>
      <leafValues>
        3.5511532425880432e-01 -1.4194324612617493e-01</leafValues></_>
    <_>
      <internalNodes>
        0 -1 144549 1.5045881271362305e-02</internalNodes>
      <leafValues>
        -1.0326719284057617e-01 5.4834967851638794e-01</leafValues></_>
    <_>
      <internalNodes>
        0 -1 127779 -5.2842154400423169e-04</internalNodes>
      <leafValues>
        2.6299947500228882e-01 -1.8033003807067871e-01</leafValues></_>
    <_>
      <internalNodes>
        0 -1 11574 -3.6779614165425301e-03</internalNodes>
      <leafValues>
        -6.3462859392166138e-01 7.5634412467479706e-02</leafValues></_>
    <_>
      <internalNodes>
        0 -1 151656 -1.7485426724306308e-05</internalNodes>
      <leafValues>
        2.0239683985710144e-01 -2.2931003570556641e-01</leafValues></_>
    <_>
      <internalNodes>
        0 -1 156269 -8.3941740740556270e-05</internalNodes>
      <leafValues>
        2.4079611897468567e-01 -2.0872054994106293e-01</leafValues></_>
    <_>
      <internalNodes>
        0 -1 69372 -6.9606851320713758e-04</internalNodes>
      <leafValues>
        2.6385262608528137e-01 -1.9192953407764435e-01</leafValues></_>
    <_>
      <internalNodes>
        0 -1 108238 3.4174118191003799e-03</internalNodes>
      <leafValues>
        -1.5180057287216187e-01 2.9839459061622620e-01</leafValues></_>
    <_>
      <internalNodes>
        0 -1 4993 2.4579623714089394e-03</internalNodes>
      <leafValues>
        -1.0850102454423904e-01 4.2286553978919983e-01</leafValues></_>
    <_>
      <internalNodes>
        0 -1 124967 8.4565929137170315e-04</internalNodes>
      <leafValues>
        -3.8915026187896729e-01 1.3193452358245850e-01</leafValues></_>
    <_>
      <internalNodes>
        0 -1 130034 -6.1186375096440315e-03</internalNodes>
      <leafValues>
        2.8866231441497803e-01 -1.8036134541034698e-01</leafValues></_>
    <_>
      <internalNodes>
        0 -1 161941 1.6364520415663719e-03</internalNodes>
      <leafValues>
        5.2223570644855499e-02 -9.0078467130661011e-01</leafValues></_>
    <_>
      <internalNodes>
        0 -1 89067 5.9733842499554157e-04</internalNodes>
      <leafValues>
        -1.6814406216144562e-01 3.1478211283683777e-01</leafValues></_>
    <_>
      <internalNodes>
        0 -1 89638 4.3625049293041229e-02</internalNodes>
      <leafValues>
        -6.1081290245056152e-02 7.9602354764938354e-01</leafValues></_>
    <_>
      <internalNodes>
        0 -1 120770 -4.4915377657162026e-05</internalNodes>
      <leafValues>
        2.3219339549541473e-01 -2.1587884426116943e-01</leafValues></_></weakClassifiers></stage7>
</opencv_storage>
