<?xml version="1.0"?>
<opencv_storage>
<stage3>
  <maxWeakCount>13</maxWeakCount>
  <stageThreshold>-1.3728754520416260e+00</stageThreshold>
  <weakClassifiers>
    <_>
      <internalNodes>
        0 -1 14511 -1.7194561660289764e-02</internalNodes>
      <leafValues>
        1.2820513546466827e-01 -7.0075756311416626e-01</leafValues></_>
    <_>
      <internalNodes>
        0 -1 161379 1.2649439275264740e-02</internalNodes>
      <leafValues>
        -4.3465292453765869e-01 3.5338509082794189e-01</leafValues></_>
    <_>
      <internalNodes>
        0 -1 139491 -2.5019245222210884e-02</internalNodes>
      <leafValues>
        5.6752169132232666e-01 -2.0312657952308655e-01</leafValues></_>
    <_>
      <internalNodes>
        0 -1 1936 -2.7731131762266159e-02</internalNodes>
      <leafValues>
        2.7204227447509766e-01 -4.3610531091690063e-01</leafValues></_>
    <_>
      <internalNodes>
        0 -1 155206 2.2635625209659338e-03</internalNodes>
      <leafValues>
        -2.9185184836387634e-01 3.7170058488845825e-01</leafValues></_>
    <_>
      <internalNodes>
        0 -1 23213 -2.9156208038330078e-03</internalNodes>
      <leafValues>
        3.8509485125541687e-01 -3.3061212301254272e-01</leafValues></_>
    <_>
      <internalNodes>
        0 -1 152325 1.7312116920948029e-02</internalNodes>
      <leafValues>
        -1.8567456305027008e-01 6.6168177127838135e-01</leafValues></_>
    <_>
      <internalNodes>
        0 -1 249 -1.2890312820672989e-02</internalNodes>
      <leafValues>
        5.8719235658645630e-01 -1.6424842178821564e-01</leafValues></_>
    <_>
      <internalNodes>
        0 -1 68124 2.3737846277072094e-05</internalNodes>
      <leafValues>
        -2.5391066074371338e-01 4.2500895261764526e-01</leafValues></_>
    <_>
      <internalNodes>
        0 -1 156024 -1.9962817896157503e-03</internalNodes>
      <leafValues>
        6.5855103731155396e-01 -1.8379397690296173e-01</leafValues></_>
    <_>
      <internalNodes>
        0 -1 46594 -5.3476577159017324e-04</internalNodes>
      <leafValues>
        3.6497807502746582e-01 -2.8308585286140442e-01</leafValues></_>
    <_>
      <internalNodes>
        0 -1 155211 3.0729136778973043e-04</internalNodes>
      <leafValues>
        -2.3050056397914886e-01 4.7083321213722229e-01</leafValues></_>
    <_>
      <internalNodes>
        0 -1 155096 1.0152549657505006e-04</internalNodes>
      <leafValues>
        -3.9569997787475586e-01 2.7482536435127258e-01</leafValues></_></weakClassifiers></stage3>
</opencv_storage>
