<?xml version="1.0"?>
<opencv_storage>
<stage2>
  <maxWeakCount>13</maxWeakCount>
  <stageThreshold>-1.7269158363342285e+00</stageThreshold>
  <weakClassifiers>
    <_>
      <internalNodes>
        0 -1 94 -7.6338038779795170e-03</internalNodes>
      <leafValues>
        1.2142857164144516e-01 -7.3663365840911865e-01</leafValues></_>
    <_>
      <internalNodes>
        0 -1 26708 -5.0547304563224316e-03</internalNodes>
      <leafValues>
        2.7161011099815369e-01 -5.3577053546905518e-01</leafValues></_>
    <_>
      <internalNodes>
        0 -1 13343 -3.8351573050022125e-02</internalNodes>
      <leafValues>
        4.0505108237266541e-01 -4.0827995538711548e-01</leafValues></_>
    <_>
      <internalNodes>
        0 -1 134984 -1.5996855217963457e-03</internalNodes>
      <leafValues>
        3.4125563502311707e-01 -3.9357656240463257e-01</leafValues></_>
    <_>
      <internalNodes>
        0 -1 159040 -4.7014150768518448e-03</internalNodes>
      <leafValues>
        5.2710801362991333e-01 -1.9835302233695984e-01</leafValues></_>
    <_>
      <internalNodes>
        0 -1 1212 -3.7354692816734314e-02</internalNodes>
      <leafValues>
        4.4451355934143066e-01 -3.0598193407058716e-01</leafValues></_>
    <_>
      <internalNodes>
        0 -1 161479 -2.7189697138965130e-03</internalNodes>
      <leafValues>
        6.3287144899368286e-01 -1.9722720980644226e-01</leafValues></_>
    <_>
      <internalNodes>
        0 -1 151258 -7.6808180892840028e-05</internalNodes>
      <leafValues>
        4.4530117511749268e-01 -2.9088935256004333e-01</leafValues></_>
    <_>
      <internalNodes>
        0 -1 20980 -3.0478795524686575e-03</internalNodes>
      <leafValues>
        3.2765698432922363e-01 -3.8033485412597656e-01</leafValues></_>
    <_>
      <internalNodes>
        0 -1 143921 -3.1113750301301479e-03</internalNodes>
      <leafValues>
        4.4341611862182617e-01 -3.0070579051971436e-01</leafValues></_>
    <_>
      <internalNodes>
        0 -1 54254 -2.0483365005929954e-05</internalNodes>
      <leafValues>
        3.9964908361434937e-01 -3.1361880898475647e-01</leafValues></_>
    <_>
      <internalNodes>
        0 -1 26081 -2.0935133099555969e-02</internalNodes>
      <leafValues>
        3.7424665689468384e-01 -3.0655536055564880e-01</leafValues></_>
    <_>
      <internalNodes>
        0 -1 56735 -3.2337172888219357e-04</internalNodes>
      <leafValues>
        3.8008999824523926e-01 -3.1688526272773743e-01</leafValues></_></weakClassifiers></stage2>
</opencv_storage>
