<?xml version="1.0"?>
<opencv_storage>
<stage10>
  <maxWeakCount>25</maxWeakCount>
  <stageThreshold>-1.3371740579605103e+00</stageThreshold>
  <weakClassifiers>
    <_>
      <internalNodes>
        0 -1 22419 -1.6600146889686584e-01</internalNodes>
      <leafValues>
        6.0000002384185791e-01 -6.4628100395202637e-01</leafValues></_>
    <_>
      <internalNodes>
        0 -1 25314 -1.2513006106019020e-02</internalNodes>
      <leafValues>
        2.2652569413185120e-01 -2.4903975427150726e-01</leafValues></_>
    <_>
      <internalNodes>
        0 -1 153689 -3.3449076116085052e-02</internalNodes>
      <leafValues>
        2.6717600226402283e-01 -1.7151261866092682e-01</leafValues></_>
    <_>
      <internalNodes>
        0 -1 161893 1.4714773278683424e-03</internalNodes>
      <leafValues>
        -1.8295945227146149e-01 2.2931149601936340e-01</leafValues></_>
    <_>
      <internalNodes>
        0 -1 157187 2.0450470037758350e-03</internalNodes>
      <leafValues>
        6.1052590608596802e-02 -7.5697606801986694e-01</leafValues></_>
    <_>
      <internalNodes>
        0 -1 84585 5.8189105242490768e-02</internalNodes>
      <leafValues>
        -1.8554481863975525e-01 2.1764779090881348e-01</leafValues></_>
    <_>
      <internalNodes>
        0 -1 129096 1.1879915837198496e-03</internalNodes>
      <leafValues>
        -1.9006484746932983e-01 2.1741405129432678e-01</leafValues></_>
    <_>
      <internalNodes>
        0 -1 50093 1.7670026421546936e-01</internalNodes>
      <leafValues>
        8.5248753428459167e-02 -8.4967404603958130e-01</leafValues></_>
    <_>
      <internalNodes>
        0 -1 157133 -1.1763806454837322e-02</internalNodes>
      <leafValues>
        -8.6661791801452637e-01 8.4436479955911636e-03</leafValues></_>
    <_>
      <internalNodes>
        0 -1 32540 4.7846988309174776e-05</internalNodes>
      <leafValues>
        -2.3855282366275787e-01 1.7160572111606598e-01</leafValues></_>
    <_>
      <internalNodes>
        0 -1 110664 1.4532346278429031e-02</internalNodes>
      <leafValues>
        7.4886254966259003e-02 -6.7672860622406006e-01</leafValues></_>
    <_>
      <internalNodes>
        0 -1 99121 -1.1760449036955833e-02</internalNodes>
      <leafValues>
        3.8590046763420105e-01 -1.1297667771577835e-01</leafValues></_>
    <_>
      <internalNodes>
        0 -1 134055 -5.5135767906904221e-03</internalNodes>
      <leafValues>
        3.9286962151527405e-01 -1.0030937194824219e-01</leafValues></_>
    <_>
      <internalNodes>
        0 -1 26044 -8.8114421814680099e-03</internalNodes>
      <leafValues>
        3.3372187614440918e-01 -1.1624597758054733e-01</leafValues></_>
    <_>
      <internalNodes>
        0 -1 139121 -1.2759031727910042e-02</internalNodes>
      <leafValues>
        4.9957939982414246e-01 -8.3078354597091675e-02</leafValues></_>
    <_>
      <internalNodes>
        0 -1 57710 9.1432326007634401e-04</internalNodes>
      <leafValues>
        -1.6792412102222443e-01 2.3469424247741699e-01</leafValues></_>
    <_>
      <internalNodes>
        0 -1 46579 6.6858352511189878e-05</internalNodes>
      <leafValues>
        -2.5151917338371277e-01 1.9012628495693207e-01</leafValues></_>
    <_>
      <internalNodes>
        0 -1 160875 -1.3480162248015404e-02</internalNodes>
      <leafValues>
        2.3242993652820587e-01 -1.7170690000057220e-01</leafValues></_>
    <_>
      <internalNodes>
        0 -1 90565 1.5693658497184515e-03</internalNodes>
      <leafValues>
        -2.0735248923301697e-01 1.9254758954048157e-01</leafValues></_>
    <_>
      <internalNodes>
        0 -1 160492 1.6312361694872379e-03</internalNodes>
      <leafValues>
        -1.3004504144191742e-01 3.1389480829238892e-01</leafValues></_>
    <_>
      <internalNodes>
        0 -1 48781 1.5818409621715546e-02</internalNodes>
      <leafValues>
        -7.1625746786594391e-02 6.4782726764678955e-01</leafValues></_>
    <_>
      <internalNodes>
        0 -1 160828 -1.1773752048611641e-03</internalNodes>
      <leafValues>
        2.5019264221191406e-01 -1.8416622281074524e-01</leafValues></_>
    <_>
      <internalNodes>
        0 -1 160106 2.0769305992871523e-03</internalNodes>
      <leafValues>
        -1.5944461524486542e-01 2.9204145073890686e-01</leafValues></_>
    <_>
      <internalNodes>
        0 -1 150981 1.0950233554467559e-03</internalNodes>
      <leafValues>
        6.1018589884042740e-02 -7.0918542146682739e-01</leafValues></_>
    <_>
      <internalNodes>
        0 -1 69477 5.9163924306631088e-03</internalNodes>
      <leafValues>
        -2.0432905852794647e-01 2.0812124013900757e-01</leafValues></_></weakClassifiers></stage10>
</opencv_storage>
