<?xml version="1.0"?>
<opencv_storage>
<stage4>
  <maxWeakCount>18</maxWeakCount>
  <stageThreshold>-1.5018339157104492e+00</stageThreshold>
  <weakClassifiers>
    <_>
      <internalNodes>
        0 -1 11975 -4.7360841184854507e-02</internalNodes>
      <leafValues>
        7.5630255043506622e-02 -7.0117014646530151e-01</leafValues></_>
    <_>
      <internalNodes>
        0 -1 134071 -4.2476162314414978e-02</internalNodes>
      <leafValues>
        3.3714875578880310e-01 -3.5683903098106384e-01</leafValues></_>
    <_>
      <internalNodes>
        0 -1 1268 2.3433398455381393e-02</internalNodes>
      <leafValues>
        -1.2070102989673615e-01 6.0541439056396484e-01</leafValues></_>
    <_>
      <internalNodes>
        0 -1 148090 2.0218390971422195e-02</internalNodes>
      <leafValues>
        -1.5787105262279510e-01 4.0375363826751709e-01</leafValues></_>
    <_>
      <internalNodes>
        0 -1 8452 1.6905227676033974e-02</internalNodes>
      <leafValues>
        -3.0290928483009338e-01 2.0436108112335205e-01</leafValues></_>
    <_>
      <internalNodes>
        0 -1 100559 6.7311564635019749e-05</internalNodes>
      <leafValues>
        -2.9018679261207581e-01 1.9493180513381958e-01</leafValues></_>
    <_>
      <internalNodes>
        0 -1 10036 -4.7172149643301964e-03</internalNodes>
      <leafValues>
        5.2246820926666260e-01 -1.1011546105146408e-01</leafValues></_>
    <_>
      <internalNodes>
        0 -1 4119 -1.7121750861406326e-02</internalNodes>
      <leafValues>
        4.9643203616142273e-01 -1.2958316504955292e-01</leafValues></_>
    <_>
      <internalNodes>
        0 -1 126967 -8.9532863348722458e-03</internalNodes>
      <leafValues>
        -7.2490781545639038e-01 1.1511509865522385e-01</leafValues></_>
    <_>
      <internalNodes>
        0 -1 70085 1.1068826541304588e-02</internalNodes>
      <leafValues>
        -1.4359526336193085e-01 5.4241073131561279e-01</leafValues></_>
    <_>
      <internalNodes>
        0 -1 24038 5.1302304200362414e-05</internalNodes>
      <leafValues>
        -2.8840014338493347e-01 2.2048182785511017e-01</leafValues></_>
    <_>
      <internalNodes>
        0 -1 89792 4.1671814396977425e-03</internalNodes>
      <leafValues>
        -1.4384183287620544e-01 4.1755232214927673e-01</leafValues></_>
    <_>
      <internalNodes>
        0 -1 49717 -3.4398145508021116e-03</internalNodes>
      <leafValues>
        4.1928550601005554e-01 -1.4460456371307373e-01</leafValues></_>
    <_>
      <internalNodes>
        0 -1 152237 -7.2717983275651932e-03</internalNodes>
      <leafValues>
        6.7640489339828491e-01 -1.0432288795709610e-01</leafValues></_>
    <_>
      <internalNodes>
        0 -1 136789 5.6314842368010432e-05</internalNodes>
      <leafValues>
        -2.7561500668525696e-01 2.5494977831840515e-01</leafValues></_>
    <_>
      <internalNodes>
        0 -1 130889 -5.5953882110770792e-05</internalNodes>
      <leafValues>
        2.8142869472503662e-01 -2.3510424792766571e-01</leafValues></_>
    <_>
      <internalNodes>
        0 -1 157681 -5.4479198297485709e-05</internalNodes>
      <leafValues>
        2.1950131654739380e-01 -2.8469833731651306e-01</leafValues></_>
    <_>
      <internalNodes>
        0 -1 8713 -9.0203555300831795e-03</internalNodes>
      <leafValues>
        -8.0022269487380981e-01 7.6033890247344971e-02</leafValues></_></weakClassifiers></stage4>
</opencv_storage>
