<?xml version="1.0"?>
<opencv_storage>
<stage3>
  <maxWeakCount>10</maxWeakCount>
  <stageThreshold>-7.0958697795867920e-01</stageThreshold>
  <weakClassifiers>
    <_>
      <internalNodes>
        0 -1 138322 1.0909978300333023e-02</internalNodes>
      <leafValues>
        -3.3802816271781921e-01 5.6521737575531006e-01</leafValues></_>
    <_>
      <internalNodes>
        0 -1 67685 5.9535005129873753e-04</internalNodes>
      <leafValues>
        -1.5303871035575867e-01 6.6818714141845703e-01</leafValues></_>
    <_>
      <internalNodes>
        0 -1 156677 4.5329677959671244e-05</internalNodes>
      <leafValues>
        -2.6754069328308105e-01 3.7041428685188293e-01</leafValues></_>
    <_>
      <internalNodes>
        0 -1 81615 9.2562066856771708e-04</internalNodes>
      <leafValues>
        -3.6460399627685547e-01 3.0274191498756409e-01</leafValues></_>
    <_>
      <internalNodes>
        0 -1 142863 1.1494606733322144e-03</internalNodes>
      <leafValues>
        -2.0198300480842590e-01 5.0201368331909180e-01</leafValues></_>
    <_>
      <internalNodes>
        0 -1 40696 2.4892752990126610e-03</internalNodes>
      <leafValues>
        -1.8316729366779327e-01 5.9886503219604492e-01</leafValues></_>
    <_>
      <internalNodes>
        0 -1 119601 1.6489670088049024e-05</internalNodes>
      <leafValues>
        -3.5324850678443909e-01 3.4817883372306824e-01</leafValues></_>
    <_>
      <internalNodes>
        0 -1 49142 1.6130816220538691e-05</internalNodes>
      <leafValues>
        -2.8409063816070557e-01 4.0018555521965027e-01</leafValues></_>
    <_>
      <internalNodes>
        0 -1 160938 5.0553481560200453e-04</internalNodes>
      <leafValues>
        -2.9989939928054810e-01 4.9269041419029236e-01</leafValues></_>
    <_>
      <internalNodes>
        0 -1 73813 -7.4018770828843117e-04</internalNodes>
      <leafValues>
        3.9663112163543701e-01 -3.2661277055740356e-01</leafValues></_></weakClassifiers></stage3>
</opencv_storage>
