<?xml version="1.0"?>
<opencv_storage>
<stage2>
  <maxWeakCount>10</maxWeakCount>
  <stageThreshold>-4.8923286795616150e-01</stageThreshold>
  <weakClassifiers>
    <_>
      <internalNodes>
        0 -1 161714 4.7670593485236168e-03</internalNodes>
      <leafValues>
        -3.7037035822868347e-01 5.0000000000000000e-01</leafValues></_>
    <_>
      <internalNodes>
        0 -1 4082 1.7245262279175222e-04</internalNodes>
      <leafValues>
        -2.8766295313835144e-01 4.2695075273513794e-01</leafValues></_>
    <_>
      <internalNodes>
        0 -1 144912 7.9676590394228697e-04</internalNodes>
      <leafValues>
        -3.1721854209899902e-01 4.5581847429275513e-01</leafValues></_>
    <_>
      <internalNodes>
        0 -1 87167 -3.2672884408384562e-03</internalNodes>
      <leafValues>
        4.7380462288856506e-01 -2.5611922144889832e-01</leafValues></_>
    <_>
      <internalNodes>
        0 -1 158396 2.2821401944383979e-04</internalNodes>
      <leafValues>
        -2.4801155924797058e-01 5.1930487155914307e-01</leafValues></_>
    <_>
      <internalNodes>
        0 -1 158624 1.1455439962446690e-02</internalNodes>
      <leafValues>
        -2.1143859624862671e-01 5.9547924995422363e-01</leafValues></_>
    <_>
      <internalNodes>
        0 -1 24756 2.1965827909298241e-04</internalNodes>
      <leafValues>
        -2.1493458747863770e-01 4.9889039993286133e-01</leafValues></_>
    <_>
      <internalNodes>
        0 -1 113448 8.6228281725198030e-04</internalNodes>
      <leafValues>
        -3.0830609798431396e-01 4.7734442353248596e-01</leafValues></_>
    <_>
      <internalNodes>
        0 -1 113931 4.8852484906092286e-04</internalNodes>
      <leafValues>
        -2.6962226629257202e-01 4.9414214491844177e-01</leafValues></_>
    <_>
      <internalNodes>
        0 -1 160040 -4.7603379935026169e-03</internalNodes>
      <leafValues>
        6.0068768262863159e-01 -1.6391116380691528e-01</leafValues></_></weakClassifiers></stage2>
</opencv_storage>
