<?xml version="1.0"?>
<opencv_storage>
<stage11>
  <maxWeakCount>14</maxWeakCount>
  <stageThreshold>-1.5219037532806396e+00</stageThreshold>
  <weakClassifiers>
    <_>
      <internalNodes>
        0 -1 125231 7.5683183968067169e-02</internalNodes>
      <leafValues>
        -8.2648402452468872e-01 1.</leafValues></_>
    <_>
      <internalNodes>
        0 -1 137727 -5.2570141851902008e-02</internalNodes>
      <leafValues>
        5.1052343845367432e-01 -3.9094173908233643e-01</leafValues></_>
    <_>
      <internalNodes>
        0 -1 127935 4.3900858145207167e-05</internalNodes>
      <leafValues>
        -2.7871203422546387e-01 2.1739828586578369e-01</leafValues></_>
    <_>
      <internalNodes>
        0 -1 156383 2.9972437769174576e-03</internalNodes>
      <leafValues>
        9.2434346675872803e-02 -6.5224784612655640e-01</leafValues></_>
    <_>
      <internalNodes>
        0 -1 156071 7.5606843456625938e-03</internalNodes>
      <leafValues>
        -1.3847039639949799e-01 4.6371537446975708e-01</leafValues></_>
    <_>
      <internalNodes>
        0 -1 121945 -3.6935394164174795e-03</internalNodes>
      <leafValues>
        4.0560111403465271e-01 -1.3143818080425262e-01</leafValues></_>
    <_>
      <internalNodes>
        0 -1 105806 -1.2983577325940132e-03</internalNodes>
      <leafValues>
        -3.9621174335479736e-01 1.4956630766391754e-01</leafValues></_>
    <_>
      <internalNodes>
        0 -1 10590 1.9873405108228326e-04</internalNodes>
      <leafValues>
        -2.5642704963684082e-01 2.5004988908767700e-01</leafValues></_>
    <_>
      <internalNodes>
        0 -1 121304 5.2264751866459846e-04</internalNodes>
      <leafValues>
        -2.5100189447402954e-01 3.0656096339225769e-01</leafValues></_>
    <_>
      <internalNodes>
        0 -1 130173 3.5866175312548876e-04</internalNodes>
      <leafValues>
        -2.0345059037208557e-01 3.5405588150024414e-01</leafValues></_>
    <_>
      <internalNodes>
        0 -1 61153 -2.9015652835369110e-02</internalNodes>
      <leafValues>
        2.2583986818790436e-01 -2.9546064138412476e-01</leafValues></_>
    <_>
      <internalNodes>
        0 -1 74965 -3.7898801267147064e-02</internalNodes>
      <leafValues>
        3.2932174205780029e-01 -2.3455202579498291e-01</leafValues></_>
    <_>
      <internalNodes>
        0 -1 8166 1.4851868152618408e-02</internalNodes>
      <leafValues>
        -1.5172253549098969e-01 4.4229719042778015e-01</leafValues></_>
    <_>
      <internalNodes>
        0 -1 150481 -5.9031706769019365e-04</internalNodes>
      <leafValues>
        4.0442949533462524e-01 -1.8016061186790466e-01</leafValues></_></weakClassifiers></stage11>
</opencv_storage>
