<?xml version="1.0"?>
<opencv_storage>
<stage2>
  <maxWeakCount>9</maxWeakCount>
  <stageThreshold>-1.8213086128234863e+00</stageThreshold>
  <weakClassifiers>
    <_>
      <internalNodes>
        0 -1 42411 -6.6319324076175690e-02</internalNodes>
      <leafValues>
        -3.2584270834922791e-01 -8.6152327060699463e-01</leafValues></_>
    <_>
      <internalNodes>
        0 -1 123840 -2.5611935416236520e-04</internalNodes>
      <leafValues>
        1.4934076368808746e-01 -5.8215606212615967e-01</leafValues></_>
    <_>
      <internalNodes>
        0 -1 71697 8.0122571671381593e-04</internalNodes>
      <leafValues>
        -3.5986897349357605e-01 4.0368613600730896e-01</leafValues></_>
    <_>
      <internalNodes>
        0 -1 158118 3.3950188662856817e-03</internalNodes>
      <leafValues>
        -2.2383040189743042e-01 6.1554592847824097e-01</leafValues></_>
    <_>
      <internalNodes>
        0 -1 133736 2.2824411280453205e-03</internalNodes>
      <leafValues>
        -2.6378545165061951e-01 5.4945731163024902e-01</leafValues></_>
    <_>
      <internalNodes>
        0 -1 50240 -4.9774516373872757e-03</internalNodes>
      <leafValues>
        5.4416775703430176e-01 -2.6153036952018738e-01</leafValues></_>
    <_>
      <internalNodes>
        0 -1 53556 -6.5110158175230026e-05</internalNodes>
      <leafValues>
        3.7108504772186279e-01 -3.8662609457969666e-01</leafValues></_>
    <_>
      <internalNodes>
        0 -1 96422 4.1234336094930768e-04</internalNodes>
      <leafValues>
        -2.2479231655597687e-01 5.2195119857788086e-01</leafValues></_>
    <_>
      <internalNodes>
        0 -1 133725 -2.2378051653504372e-03</internalNodes>
      <leafValues>
        7.1833473443984985e-01 -1.7846192419528961e-01</leafValues></_></weakClassifiers></stage2>
</opencv_storage>
