<?xml version="1.0"?>
<opencv_storage>
<stage0>
  <maxWeakCount>13</maxWeakCount>
  <stageThreshold>-1.9909539222717285e+00</stageThreshold>
  <weakClassifiers>
    <_>
      <internalNodes>
        0 -1 158360 2.6582187041640282e-02</internalNodes>
      <leafValues>
        -6.9754254817962646e-01 5.3846156597137451e-01</leafValues></_>
    <_>
      <internalNodes>
        0 -1 1248 -1.7802480608224869e-02</internalNodes>
      <leafValues>
        4.7396585345268250e-01 -6.0071820020675659e-01</leafValues></_>
    <_>
      <internalNodes>
        0 -1 155084 2.5827772915363312e-03</internalNodes>
      <leafValues>
        -5.1379990577697754e-01 3.9492416381835938e-01</leafValues></_>
    <_>
      <internalNodes>
        0 -1 1033 -6.9244578480720520e-02</internalNodes>
      <leafValues>
        4.2749220132827759e-01 -4.8373574018478394e-01</leafValues></_>
    <_>
      <internalNodes>
        0 -1 121779 -6.4777429215610027e-03</internalNodes>
      <leafValues>
        5.3905534744262695e-01 -3.0564361810684204e-01</leafValues></_>
    <_>
      <internalNodes>
        0 -1 3234 -2.4650316685438156e-02</internalNodes>
      <leafValues>
        4.8362392187118530e-01 -3.1082138419151306e-01</leafValues></_>
    <_>
      <internalNodes>
        0 -1 40865 -1.7149703577160835e-02</internalNodes>
      <leafValues>
        4.2925116419792175e-01 -3.0296561121940613e-01</leafValues></_>
    <_>
      <internalNodes>
        0 -1 49893 -4.7798201441764832e-02</internalNodes>
      <leafValues>
        5.2200525999069214e-01 -2.1568493545055389e-01</leafValues></_>
    <_>
      <internalNodes>
        0 -1 25777 1.1024742852896452e-03</internalNodes>
      <leafValues>
        -3.6034956574440002e-01 3.2616579532623291e-01</leafValues></_>
    <_>
      <internalNodes>
        0 -1 37809 1.6307188197970390e-03</internalNodes>
      <leafValues>
        2.0077697932720184e-01 -5.5190187692642212e-01</leafValues></_>
    <_>
      <internalNodes>
        0 -1 155816 -1.8832643982023001e-03</internalNodes>
      <leafValues>
        4.4810581207275391e-01 -2.1895229816436768e-01</leafValues></_>
    <_>
      <internalNodes>
        0 -1 147921 3.9572096429765224e-03</internalNodes>
      <leafValues>
        1.2782137095928192e-01 -8.4015494585037231e-01</leafValues></_>
    <_>
      <internalNodes>
        0 -1 155310 3.5495118936523795e-04</internalNodes>
      <leafValues>
        -4.3236327171325684e-01 2.0970085263252258e-01</leafValues></_></weakClassifiers></stage0>
</opencv_storage>
