<?xml version="1.0"?>
<opencv_storage>
<cascade>
  <stageType>BOOST</stageType>
  <featureType>HAAR</featureType>
  <height>24</height>
  <width>24</width>
  <stageParams>
    <boostType>GAB</boostType>
    <minHitRate>9.9500000476837158e-01</minHitRate>
    <maxFalseAlarm>5.0000000000000000e-01</maxFalseAlarm>
    <weightTrimRate>9.4999999999999996e-01</weightTrimRate>
    <maxDepth>1</maxDepth>
    <maxWeakCount>100</maxWeakCount></stageParams>
  <featureParams>
    <maxCatCount>0</maxCatCount>
    <featSize>1</featSize>
    <mode>BASIC</mode></featureParams>
  <stageNum>15</stageNum>
  <stages>
    <!-- stage 0 -->
    <_>
      <maxWeakCount>6</maxWeakCount>
      <stageThreshold>-2.1519072055816650e+00</stageThreshold>
      <weakClassifiers>
        <_>
          <internalNodes>
            0 -1 137 7.0002879947423935e-03</internalNodes>
          <leafValues>
            -8.7908822298049927e-01 -1.4285714924335480e-01</leafValues></_>
        <_>
          <internalNodes>
            0 -1 47 2.2188513539731503e-03</internalNodes>
          <leafValues>
            -6.4630019664764404e-01 1.8281728029251099e-01</leafValues></_>
        <_>
          <internalNodes>
            0 -1 101 -3.1599486246705055e-03</internalNodes>
          <leafValues>
            4.4637826085090637e-01 -4.0925610065460205e-01</leafValues></_>
        <_>
          <internalNodes>
            0 -1 135 2.7807899750769138e-03</internalNodes>
          <leafValues>
            -3.9429327845573425e-01 4.1752687096595764e-01</leafValues></_>
        <_>
          <internalNodes>
            0 -1 106 -5.2795493975281715e-03</internalNodes>
          <leafValues>
            5.0380307435989380e-01 -3.2237687706947327e-01</leafValues></_>
        <_>
          <internalNodes>
            0 -1 128 3.5615183878690004e-04</internalNodes>
          <leafValues>
            -3.2971003651618958e-01 4.7336879372596741e-01</leafValues></_></weakClassifiers></_>
    <!-- stage 1 -->
    <_>
      <maxWeakCount>7</maxWeakCount>
      <stageThreshold>-2.1076123714447021e+00</stageThreshold>
      <weakClassifiers>
        <_>
          <internalNodes>
            0 -1 138 -1.8833741545677185e-02</internalNodes>
          <leafValues>
            -9.3750000000000000e-02 -8.6293435096740723e-01</leafValues></_>
        <_>
          <internalNodes>
            0 -1 89 -1.8200306221842766e-02</internalNodes>
          <leafValues>
            3.1981235742568970e-01 -5.5265516042709351e-01</leafValues></_>
        <_>
          <internalNodes>
            0 -1 145 1.9617809448391199e-04</internalNodes>
          <leafValues>
            -3.5624492168426514e-01 4.2607775330543518e-01</leafValues></_>
        <_>
          <internalNodes>
            0 -1 33 -4.1161506669595838e-04</internalNodes>
          <leafValues>
            3.9674219489097595e-01 -3.7263613939285278e-01</leafValues></_>
        <_>
          <internalNodes>
            0 -1 130 -1.1384966783225536e-03</internalNodes>
          <leafValues>
            4.3632280826568604e-01 -3.2092154026031494e-01</leafValues></_>
        <_>
          <internalNodes>
            0 -1 37 -2.1708615124225616e-02</internalNodes>
          <leafValues>
            5.6993931531906128e-01 -2.0322063565254211e-01</leafValues></_>
        <_>
          <internalNodes>
            0 -1 152 2.4733985774219036e-03</internalNodes>
          <leafValues>
            -2.2132229804992676e-01 5.5931073427200317e-01</leafValues></_></weakClassifiers></_>
    <!-- stage 2 -->
    <_>
      <maxWeakCount>7</maxWeakCount>
      <stageThreshold>-1.7092672586441040e+00</stageThreshold>
      <weakClassifiers>
        <_>
          <internalNodes>
            0 -1 23 7.6567292213439941e-02</internalNodes>
          <leafValues>
            -8.7654322385787964e-01 -3.7500000000000000e-01</leafValues></_>
        <_>
          <internalNodes>
            0 -1 4 -8.0140522914007306e-04</internalNodes>
          <leafValues>
            2.1972508728504181e-01 -5.3635591268539429e-01</leafValues></_>
        <_>
          <internalNodes>
            0 -1 153 2.4810400791466236e-03</internalNodes>
          <leafValues>
            -3.0978128314018250e-01 4.3356084823608398e-01</leafValues></_>
        <_>
          <internalNodes>
            0 -1 68 -1.0368574876338243e-03</internalNodes>
          <leafValues>
            3.6129498481750488e-01 -3.9475440979003906e-01</leafValues></_>
        <_>
          <internalNodes>
            0 -1 24 -5.0029851990984753e-05</internalNodes>
          <leafValues>
            3.7498351931571960e-01 -3.6323997378349304e-01</leafValues></_>
        <_>
          <internalNodes>
            0 -1 94 -8.0870613455772400e-03</internalNodes>
          <leafValues>
            4.2914187908172607e-01 -3.1858164072036743e-01</leafValues></_>
        <_>
          <internalNodes>
            0 -1 104 -1.6986500704661012e-03</internalNodes>
          <leafValues>
            3.3393979072570801e-01 -3.9074179530143738e-01</leafValues></_></weakClassifiers></_>
    <!-- stage 3 -->
    <_>
      <maxWeakCount>9</maxWeakCount>
      <stageThreshold>-1.7798445224761963e+00</stageThreshold>
      <weakClassifiers>
        <_>
          <internalNodes>
            0 -1 12 3.1543768942356110e-02</internalNodes>
          <leafValues>
            -8.6855411529541016e-01 -3.6936935782432556e-01</leafValues></_>
        <_>
          <internalNodes>
            0 -1 17 -4.4354153797030449e-03</internalNodes>
          <leafValues>
            1.9279170036315918e-01 -5.3036701679229736e-01</leafValues></_>
        <_>
          <internalNodes>
            0 -1 27 4.6682660467922688e-05</internalNodes>
          <leafValues>
            -3.8823872804641724e-01 3.3029812574386597e-01</leafValues></_>
        <_>
          <internalNodes>
            0 -1 97 -1.5058817807585001e-03</internalNodes>
          <leafValues>
            5.1731675863265991e-01 -2.3932874202728271e-01</leafValues></_>
        <_>
          <internalNodes>
            0 -1 91 -7.6229707337915897e-03</internalNodes>
          <leafValues>
            5.6200176477432251e-01 -2.0810580253601074e-01</leafValues></_>
        <_>
          <internalNodes>
            0 -1 48 -1.3144316151738167e-02</internalNodes>
          <leafValues>
            5.6692367792129517e-01 -2.1029978990554810e-01</leafValues></_>
        <_>
          <internalNodes>
            0 -1 87 6.3407346606254578e-03</internalNodes>
          <leafValues>
            -1.9528870284557343e-01 6.4234161376953125e-01</leafValues></_>
        <_>
          <internalNodes>
            0 -1 156 6.8983557866886258e-05</internalNodes>
          <leafValues>
            -4.0855270624160767e-01 3.4882661700248718e-01</leafValues></_>
        <_>
          <internalNodes>
            0 -1 14 1.4563653385266662e-03</internalNodes>
          <leafValues>
            -2.0702506601810455e-01 5.3667175769805908e-01</leafValues></_></weakClassifiers></_>
    <!-- stage 4 -->
    <_>
      <maxWeakCount>9</maxWeakCount>
      <stageThreshold>-1.5053400993347168e+00</stageThreshold>
      <weakClassifiers>
        <_>
          <internalNodes>
            0 -1 123 -4.5276828110218048e-02</internalNodes>
          <leafValues>
            7.6923079788684845e-02 -8.3985102176666260e-01</leafValues></_>
        <_>
          <internalNodes>
            0 -1 126 -4.8602651804685593e-03</internalNodes>
          <leafValues>
            5.1443934440612793e-02 -5.7118421792984009e-01</leafValues></_>
        <_>
          <internalNodes>
            0 -1 72 -8.1902079284191132e-02</internalNodes>
          <leafValues>
            3.0557397007942200e-01 -2.9814726114273071e-01</leafValues></_>
        <_>
          <internalNodes>
            0 -1 21 6.1730705201625824e-03</internalNodes>
          <leafValues>
            -2.1286290884017944e-01 4.0700083971023560e-01</leafValues></_>
        <_>
          <internalNodes>
            0 -1 49 3.8478448987007141e-02</internalNodes>
          <leafValues>
            -1.8161319196224213e-01 5.0084376335144043e-01</leafValues></_>
        <_>
          <internalNodes>
            0 -1 25 7.2899544611573219e-03</internalNodes>
          <leafValues>
            -1.6061601042747498e-01 5.0164008140563965e-01</leafValues></_>
        <_>
          <internalNodes>
            0 -1 74 -2.4040472507476807e-01</internalNodes>
          <leafValues>
            4.3576169013977051e-01 -1.7892841994762421e-01</leafValues></_>
        <_>
          <internalNodes>
            0 -1 154 -4.0074340067803860e-03</internalNodes>
          <leafValues>
            5.4069316387176514e-01 -1.5353949368000031e-01</leafValues></_>
        <_>
          <internalNodes>
            0 -1 11 -3.6244422197341919e-02</internalNodes>
          <leafValues>
            7.0708155632019043e-01 -1.3218253850936890e-01</leafValues></_></weakClassifiers></_>
    <!-- stage 5 -->
    <_>
      <maxWeakCount>10</maxWeakCount>
      <stageThreshold>-1.8117985725402832e+00</stageThreshold>
      <weakClassifiers>
        <_>
          <internalNodes>
            0 -1 120 -4.9979310482740402e-02</internalNodes>
          <leafValues>
            -4.0384614467620850e-01 -8.6144578456878662e-01</leafValues></_>
        <_>
          <internalNodes>
            0 -1 73 -5.5910430848598480e-02</internalNodes>
          <leafValues>
            1.3556963205337524e-01 -4.9189680814743042e-01</leafValues></_>
        <_>
          <internalNodes>
            0 -1 139 -2.8121457435190678e-03</internalNodes>
          <leafValues>
            -9.3088811635971069e-01 6.7074492573738098e-02</leafValues></_>
        <_>
          <internalNodes>
            0 -1 148 -6.3191415392793715e-05</internalNodes>
          <leafValues>
            3.6082279682159424e-01 -2.9231354594230652e-01</leafValues></_>
        <_>
          <internalNodes>
            0 -1 9 -2.6252665556967258e-03</internalNodes>
          <leafValues>
            -8.1575357913970947e-01 9.3351930379867554e-02</leafValues></_>
        <_>
          <internalNodes>
            0 -1 29 -1.1296319961547852e-01</internalNodes>
          <leafValues>
            6.4479625225067139e-01 -1.5836246311664581e-01</leafValues></_>
        <_>
          <internalNodes>
            0 -1 149 2.3860428482294083e-03</internalNodes>
          <leafValues>
            1.0586475580930710e-01 -8.9508563280105591e-01</leafValues></_>
        <_>
          <internalNodes>
            0 -1 41 -2.2630048915743828e-03</internalNodes>
          <leafValues>
            3.0767059326171875e-01 -2.7309191226959229e-01</leafValues></_>
        <_>
          <internalNodes>
            0 -1 143 2.2737309336662292e-03</internalNodes>
          <leafValues>
            1.0645323991775513e-01 -7.7972728013992310e-01</leafValues></_>
        <_>
          <internalNodes>
            0 -1 116 1.2846430763602257e-04</internalNodes>
          <leafValues>
            1.9056764245033264e-01 -4.3222588300704956e-01</leafValues></_></weakClassifiers></_>
    <!-- stage 6 -->
    <_>
      <maxWeakCount>10</maxWeakCount>
      <stageThreshold>-1.6599565744400024e+00</stageThreshold>
      <weakClassifiers>
        <_>
          <internalNodes>
            0 -1 55 -7.5902029871940613e-02</internalNodes>
          <leafValues>
            -5.0793653726577759e-01 -8.5831624269485474e-01</leafValues></_>
        <_>
          <internalNodes>
            0 -1 112 4.6055585145950317e-02</internalNodes>
          <leafValues>
            -4.7559997439384460e-01 1.0025404393672943e-01</leafValues></_>
        <_>
          <internalNodes>
            0 -1 111 -3.1663455069065094e-02</internalNodes>
          <leafValues>
            3.2286667823791504e-01 -2.6261398196220398e-01</leafValues></_>
        <_>
          <internalNodes>
            0 -1 107 1.8598940223455429e-02</internalNodes>
          <leafValues>
            -2.1287526190280914e-01 4.4529306888580322e-01</leafValues></_>
        <_>
          <internalNodes>
            0 -1 10 -6.8709626793861389e-03</internalNodes>
          <leafValues>
            -7.5620740652084351e-01 1.0087461769580841e-01</leafValues></_>
        <_>
          <internalNodes>
            0 -1 109 9.1661680489778519e-03</internalNodes>
          <leafValues>
            -1.2622055411338806e-01 5.6187850236892700e-01</leafValues></_>
        <_>
          <internalNodes>
            0 -1 62 5.3434073925018311e-03</internalNodes>
          <leafValues>
            -1.5606798231601715e-01 4.3129399418830872e-01</leafValues></_>
        <_>
          <internalNodes>
            0 -1 63 7.8620370477437973e-03</internalNodes>
          <leafValues>
            -1.7512653768062592e-01 5.3489184379577637e-01</leafValues></_>
        <_>
          <internalNodes>
            0 -1 80 -2.5483702775090933e-03</internalNodes>
          <leafValues>
            -7.7944260835647583e-01 9.7055681049823761e-02</leafValues></_>
        <_>
          <internalNodes>
            0 -1 65 1.4667451381683350e-02</internalNodes>
          <leafValues>
            -2.4923463165760040e-01 2.9517552256584167e-01</leafValues></_></weakClassifiers></_>
    <!-- stage 7 -->
    <_>
      <maxWeakCount>12</maxWeakCount>
      <stageThreshold>-1.7468284368515015e+00</stageThreshold>
      <weakClassifiers>
        <_>
          <internalNodes>
            0 -1 39 -7.8901350498199463e-02</internalNodes>
          <leafValues>
            1. -8.2481753826141357e-01</leafValues></_>
        <_>
          <internalNodes>
            0 -1 3 -6.0532949864864349e-03</internalNodes>
          <leafValues>
            1.6150392591953278e-01 -4.5524615049362183e-01</leafValues></_>
        <_>
          <internalNodes>
            0 -1 146 -9.0180919505655766e-04</internalNodes>
          <leafValues>
            -7.1901810169219971e-01 8.0999612808227539e-02</leafValues></_>
        <_>
          <internalNodes>
            0 -1 82 -9.0536512434482574e-03</internalNodes>
          <leafValues>
            -8.0960607528686523e-01 1.1886127293109894e-01</leafValues></_>
        <_>
          <internalNodes>
            0 -1 93 -1.1503604473546147e-03</internalNodes>
          <leafValues>
            5.2226203680038452e-01 -1.6109549999237061e-01</leafValues></_>
        <_>
          <internalNodes>
            0 -1 7 -3.2098772935569286e-03</internalNodes>
          <leafValues>
            3.3194467425346375e-01 -2.3121175169944763e-01</leafValues></_>
        <_>
          <internalNodes>
            0 -1 16 -8.1235952675342560e-03</internalNodes>
          <leafValues>
            5.6545966863632202e-01 -1.2293249368667603e-01</leafValues></_>
        <_>
          <internalNodes>
            0 -1 19 -4.4057387858629227e-03</internalNodes>
          <leafValues>
            -9.0175276994705200e-01 1.0265623778104782e-01</leafValues></_>
        <_>
          <internalNodes>
            0 -1 90 4.4355085119605064e-03</internalNodes>
          <leafValues>
            6.7349076271057129e-02 -8.5119813680648804e-01</leafValues></_>
        <_>
          <internalNodes>
            0 -1 102 -1.8010061467066407e-03</internalNodes>
          <leafValues>
            3.6771526932716370e-01 -2.3133231699466705e-01</leafValues></_>
        <_>
          <internalNodes>
            0 -1 88 1.6916855238378048e-03</internalNodes>
          <leafValues>
            1.1712831258773804e-01 -8.4167414903640747e-01</leafValues></_>
        <_>
          <internalNodes>
            0 -1 95 -3.0391935724765062e-03</internalNodes>
          <leafValues>
            4.7449773550033569e-01 -2.0718716084957123e-01</leafValues></_></weakClassifiers></_>
    <!-- stage 8 -->
    <_>
      <maxWeakCount>12</maxWeakCount>
      <stageThreshold>-1.8097167015075684e+00</stageThreshold>
      <weakClassifiers>
        <_>
          <internalNodes>
            0 -1 38 5.3074210882186890e-02</internalNodes>
          <leafValues>
            -8.2481753826141357e-01 1.</leafValues></_>
        <_>
          <internalNodes>
            0 -1 108 -9.1566964983940125e-03</internalNodes>
          <leafValues>
            3.0398836359381676e-02 -5.1298165321350098e-01</leafValues></_>
        <_>
          <internalNodes>
            0 -1 0 -8.3481324836611748e-03</internalNodes>
          <leafValues>
            4.0868699550628662e-01 -2.0566199719905853e-01</leafValues></_>
        <_>
          <internalNodes>
            0 -1 147 -3.1200931407511234e-03</internalNodes>
          <leafValues>
            4.0918514132499695e-01 -1.7624390125274658e-01</leafValues></_>
        <_>
          <internalNodes>
            0 -1 140 -1.3723501935601234e-02</internalNodes>
          <leafValues>
            4.5277291536331177e-01 -1.7029298841953278e-01</leafValues></_>
        <_>
          <internalNodes>
            0 -1 96 -5.5613003671169281e-02</internalNodes>
          <leafValues>
            3.3115133643150330e-01 -2.7111247181892395e-01</leafValues></_>
        <_>
          <internalNodes>
            0 -1 105 2.6254012482240796e-04</internalNodes>
          <leafValues>
            1.6071869432926178e-01 -4.4358596205711365e-01</leafValues></_>
        <_>
          <internalNodes>
            0 -1 77 -1.8532044487074018e-03</internalNodes>
          <leafValues>
            4.4081971049308777e-01 -1.5333440899848938e-01</leafValues></_>
        <_>
          <internalNodes>
            0 -1 84 1.1452375911176205e-03</internalNodes>
          <leafValues>
            -2.3266689479351044e-01 3.2770943641662598e-01</leafValues></_>
        <_>
          <internalNodes>
            0 -1 136 -5.9742716985056177e-05</internalNodes>
          <leafValues>
            2.3921325802803040e-01 -3.3277773857116699e-01</leafValues></_>
        <_>
          <internalNodes>
            0 -1 129 -4.1139559471048415e-05</internalNodes>
          <leafValues>
            2.4080732464790344e-01 -3.2107555866241455e-01</leafValues></_>
        <_>
          <internalNodes>
            0 -1 119 -2.2784799337387085e-02</internalNodes>
          <leafValues>
            -9.5763540267944336e-01 7.3109716176986694e-02</leafValues></_></weakClassifiers></_>
    <!-- stage 9 -->
    <_>
      <maxWeakCount>15</maxWeakCount>
      <stageThreshold>-1.7362167835235596e+00</stageThreshold>
      <weakClassifiers>
        <_>
          <internalNodes>
            0 -1 18 -4.6728044748306274e-02</internalNodes>
          <leafValues>
            -2.5581395626068115e-01 -8.4105962514877319e-01</leafValues></_>
        <_>
          <internalNodes>
            0 -1 22 3.8302458822727203e-02</internalNodes>
          <leafValues>
            -4.2756995558738708e-01 2.0998072624206543e-01</leafValues></_>
        <_>
          <internalNodes>
            0 -1 144 3.3486438915133476e-03</internalNodes>
          <leafValues>
            4.3948903679847717e-02 -9.1267669200897217e-01</leafValues></_>
        <_>
          <internalNodes>
            0 -1 127 -4.9523055553436279e-02</internalNodes>
          <leafValues>
            5.0903016328811646e-01 -1.0703024268150330e-01</leafValues></_>
        <_>
          <internalNodes>
            0 -1 52 8.7530491873621941e-03</internalNodes>
          <leafValues>
            -1.4913618564605713e-01 3.8964724540710449e-01</leafValues></_>
        <_>
          <internalNodes>
            0 -1 40 -1.0358562692999840e-02</internalNodes>
          <leafValues>
            4.0733739733695984e-01 -1.8476168811321259e-01</leafValues></_>
        <_>
          <internalNodes>
            0 -1 132 5.3438678150996566e-05</internalNodes>
          <leafValues>
            -2.6175194978713989e-01 2.4076080322265625e-01</leafValues></_>
        <_>
          <internalNodes>
            0 -1 30 4.0018066647462547e-04</internalNodes>
          <leafValues>
            1.6804595291614532e-01 -3.8912549614906311e-01</leafValues></_>
        <_>
          <internalNodes>
            0 -1 64 -2.5713097304105759e-02</internalNodes>
          <leafValues>
            3.4492915868759155e-01 -1.9585686922073364e-01</leafValues></_>
        <_>
          <internalNodes>
            0 -1 115 -1.1205723276361823e-03</internalNodes>
          <leafValues>
            3.2299709320068359e-01 -2.6733872294425964e-01</leafValues></_>
        <_>
          <internalNodes>
            0 -1 67 -5.6574776768684387e-02</internalNodes>
          <leafValues>
            5.7778149843215942e-01 -1.3209150731563568e-01</leafValues></_>
        <_>
          <internalNodes>
            0 -1 141 9.2019955627620220e-04</internalNodes>
          <leafValues>
            -1.9857148826122284e-01 3.8124457001686096e-01</leafValues></_>
        <_>
          <internalNodes>
            0 -1 15 2.1592278033494949e-02</internalNodes>
          <leafValues>
            -1.7296534776687622e-01 4.5182591676712036e-01</leafValues></_>
        <_>
          <internalNodes>
            0 -1 99 9.7916636150330305e-04</internalNodes>
          <leafValues>
            -1.8405607342720032e-01 4.4734990596771240e-01</leafValues></_>
        <_>
          <internalNodes>
            0 -1 71 3.3598768059164286e-03</internalNodes>
          <leafValues>
            9.4408541917800903e-02 -8.0827736854553223e-01</leafValues></_></weakClassifiers></_>
    <!-- stage 10 -->
    <_>
      <maxWeakCount>12</maxWeakCount>
      <stageThreshold>-1.8503807783126831e+00</stageThreshold>
      <weakClassifiers>
        <_>
          <internalNodes>
            0 -1 51 2.3802272975444794e-02</internalNodes>
          <leafValues>
            -8.2632541656494141e-01 6.6666668653488159e-01</leafValues></_>
        <_>
          <internalNodes>
            0 -1 58 5.8724015252664685e-04</internalNodes>
          <leafValues>
            -5.3049951791763306e-01 -8.2228809595108032e-02</leafValues></_>
        <_>
          <internalNodes>
            0 -1 61 3.8496009074151516e-04</internalNodes>
          <leafValues>
            9.8460994660854340e-02 -5.7802951335906982e-01</leafValues></_>
        <_>
          <internalNodes>
            0 -1 59 7.0442846044898033e-03</internalNodes>
          <leafValues>
            1.1612419784069061e-01 -7.7330434322357178e-01</leafValues></_>
        <_>
          <internalNodes>
            0 -1 79 -5.1637301221489906e-03</internalNodes>
          <leafValues>
            4.5607623457908630e-01 -1.7070284485816956e-01</leafValues></_>
        <_>
          <internalNodes>
            0 -1 20 -8.0155348405241966e-04</internalNodes>
          <leafValues>
            2.4266323447227478e-01 -3.2754984498023987e-01</leafValues></_>
        <_>
          <internalNodes>
            0 -1 98 1.0747251508291811e-04</internalNodes>
          <leafValues>
            -2.1376770734786987e-01 3.0412828922271729e-01</leafValues></_>
        <_>
          <internalNodes>
            0 -1 42 -4.7425233788089827e-05</internalNodes>
          <leafValues>
            2.1192607283592224e-01 -3.2330992817878723e-01</leafValues></_>
        <_>
          <internalNodes>
            0 -1 5 2.1669249981641769e-03</internalNodes>
          <leafValues>
            8.2814998924732208e-02 -9.3490511178970337e-01</leafValues></_>
        <_>
          <internalNodes>
            0 -1 8 8.3060534670948982e-03</internalNodes>
          <leafValues>
            -1.8398453295230865e-01 4.7419625520706177e-01</leafValues></_>
        <_>
          <internalNodes>
            0 -1 1 9.9296435713768005e-02</internalNodes>
          <leafValues>
            -1.1785994470119476e-01 5.5706322193145752e-01</leafValues></_>
        <_>
          <internalNodes>
            0 -1 92 -9.8765017464756966e-03</internalNodes>
          <leafValues>
            5.7303261756896973e-01 -1.1807244271039963e-01</leafValues></_></weakClassifiers></_>
    <!-- stage 11 -->
    <_>
      <maxWeakCount>11</maxWeakCount>
      <stageThreshold>-1.5888468027114868e+00</stageThreshold>
      <weakClassifiers>
        <_>
          <internalNodes>
            0 -1 13 5.2715444564819336e-01</internalNodes>
          <leafValues>
            -8.2481753826141357e-01 1.</leafValues></_>
        <_>
          <internalNodes>
            0 -1 2 1.7871659249067307e-02</internalNodes>
          <leafValues>
            -4.8630058765411377e-01 -1.5554697252810001e-02</leafValues></_>
        <_>
          <internalNodes>
            0 -1 150 -1.0314628016203642e-03</internalNodes>
          <leafValues>
            -5.9470224380493164e-01 7.9436995089054108e-02</leafValues></_>
        <_>
          <internalNodes>
            0 -1 110 -4.8621045425534248e-03</internalNodes>
          <leafValues>
            2.5327169895172119e-01 -2.5422561168670654e-01</leafValues></_>
        <_>
          <internalNodes>
            0 -1 103 1.3485801173374057e-03</internalNodes>
          <leafValues>
            5.0507914274930954e-02 -9.1769516468048096e-01</leafValues></_>
        <_>
          <internalNodes>
            0 -1 53 -1.6476974124088883e-03</internalNodes>
          <leafValues>
            2.9533687233924866e-01 -2.1027034521102905e-01</leafValues></_>
        <_>
          <internalNodes>
            0 -1 45 -4.4368198141455650e-03</internalNodes>
          <leafValues>
            4.6127879619598389e-01 -1.5412372350692749e-01</leafValues></_>
        <_>
          <internalNodes>
            0 -1 117 -1.2645460083149374e-04</internalNodes>
          <leafValues>
            2.7616092562675476e-01 -2.7368384599685669e-01</leafValues></_>
        <_>
          <internalNodes>
            0 -1 69 -2.4278513155877590e-03</internalNodes>
          <leafValues>
            -9.1416257619857788e-01 6.0023035854101181e-02</leafValues></_>
        <_>
          <internalNodes>
            0 -1 133 7.4597925413399935e-04</internalNodes>
          <leafValues>
            1.9441287219524384e-01 -3.4295567870140076e-01</leafValues></_>
        <_>
          <internalNodes>
            0 -1 131 -2.7113685384392738e-02</internalNodes>
          <leafValues>
            6.3472962379455566e-01 -1.0877129435539246e-01</leafValues></_></weakClassifiers></_>
    <!-- stage 12 -->
    <_>
      <maxWeakCount>11</maxWeakCount>
      <stageThreshold>-1.7136378288269043e+00</stageThreshold>
      <weakClassifiers>
        <_>
          <internalNodes>
            0 -1 78 -3.6926180124282837e-02</internalNodes>
          <leafValues>
            6.6666668653488159e-01 -8.2632541656494141e-01</leafValues></_>
        <_>
          <internalNodes>
            0 -1 75 -1.7577640712261200e-02</internalNodes>
          <leafValues>
            7.4150361120700836e-02 -4.4784030318260193e-01</leafValues></_>
        <_>
          <internalNodes>
            0 -1 36 -2.4987184442579746e-03</internalNodes>
          <leafValues>
            -9.1007298231124878e-01 4.8931978642940521e-02</leafValues></_>
        <_>
          <internalNodes>
            0 -1 54 -4.4460393837653100e-05</internalNodes>
          <leafValues>
            2.5359737873077393e-01 -2.4388548731803894e-01</leafValues></_>
        <_>
          <internalNodes>
            0 -1 121 -4.3790668249130249e-02</internalNodes>
          <leafValues>
            -8.0131906270980835e-01 7.2286464273929596e-02</leafValues></_>
        <_>
          <internalNodes>
            0 -1 85 -1.0750732326414436e-04</internalNodes>
          <leafValues>
            2.6735043525695801e-01 -2.4819855391979218e-01</leafValues></_>
        <_>
          <internalNodes>
            0 -1 43 1.6220610123127699e-03</internalNodes>
          <leafValues>
            -2.4222914874553680e-01 2.7499455213546753e-01</leafValues></_>
        <_>
          <internalNodes>
            0 -1 44 1.1006366461515427e-02</internalNodes>
          <leafValues>
            7.3706284165382385e-02 -7.8692072629928589e-01</leafValues></_>
        <_>
          <internalNodes>
            0 -1 35 -5.9420205652713776e-03</internalNodes>
          <leafValues>
            3.3883839845657349e-01 -1.9688534736633301e-01</leafValues></_>
        <_>
          <internalNodes>
            0 -1 76 -4.6178229153156281e-02</internalNodes>
          <leafValues>
            3.0383515357971191e-01 -2.5069326162338257e-01</leafValues></_>
        <_>
          <internalNodes>
            0 -1 100 1.9388079643249512e-02</internalNodes>
          <leafValues>
            -1.5943825244903564e-01 5.0830394029617310e-01</leafValues></_></weakClassifiers></_>
    <!-- stage 13 -->
    <_>
      <maxWeakCount>11</maxWeakCount>
      <stageThreshold>-1.3322753906250000e+00</stageThreshold>
      <weakClassifiers>
        <_>
          <internalNodes>
            0 -1 86 -2.6216724887490273e-02</internalNodes>
          <leafValues>
            6.0000002384185791e-01 -8.2465755939483643e-01</leafValues></_>
        <_>
          <internalNodes>
            0 -1 26 -1.4703443646430969e-01</internalNodes>
          <leafValues>
            3.4126424789428711e-01 -3.9932045340538025e-01</leafValues></_>
        <_>
          <internalNodes>
            0 -1 28 -6.9554470479488373e-02</internalNodes>
          <leafValues>
            1.9965197145938873e-01 -3.1548866629600525e-01</leafValues></_>
        <_>
          <internalNodes>
            0 -1 66 1.3030035421252251e-02</internalNodes>
          <leafValues>
            6.3724651932716370e-02 -9.6486604213714600e-01</leafValues></_>
        <_>
          <internalNodes>
            0 -1 46 1.1678859591484070e-03</internalNodes>
          <leafValues>
            -2.1182133257389069e-01 2.8129097819328308e-01</leafValues></_>
        <_>
          <internalNodes>
            0 -1 151 -2.0959512330591679e-03</internalNodes>
          <leafValues>
            -6.4015066623687744e-01 9.9371060729026794e-02</leafValues></_>
        <_>
          <internalNodes>
            0 -1 122 3.6770147271454334e-03</internalNodes>
          <leafValues>
            7.9948768019676208e-02 -7.5966542959213257e-01</leafValues></_>
        <_>
          <internalNodes>
            0 -1 114 1.6861766576766968e-02</internalNodes>
          <leafValues>
            -2.4749812483787537e-01 2.7586099505424500e-01</leafValues></_>
        <_>
          <internalNodes>
            0 -1 83 -7.2649508714675903e-02</internalNodes>
          <leafValues>
            -5.9035044908523560e-01 1.0883913189172745e-01</leafValues></_>
        <_>
          <internalNodes>
            0 -1 56 -5.4518226534128189e-03</internalNodes>
          <leafValues>
            2.8423669934272766e-01 -2.1913859248161316e-01</leafValues></_>
        <_>
          <internalNodes>
            0 -1 124 4.7511784941889346e-05</internalNodes>
          <leafValues>
            -2.7867302298545837e-01 2.3040713369846344e-01</leafValues></_></weakClassifiers></_>
    <!-- stage 14 -->
    <_>
      <maxWeakCount>16</maxWeakCount>
      <stageThreshold>-1.7921210527420044e+00</stageThreshold>
      <weakClassifiers>
        <_>
          <internalNodes>
            0 -1 60 1.7509333789348602e-02</internalNodes>
          <leafValues>
            -8.2632541656494141e-01 6.6666668653488159e-01</leafValues></_>
        <_>
          <internalNodes>
            0 -1 157 -1.2032566592097282e-02</internalNodes>
          <leafValues>
            1.4092981815338135e-01 -4.3472605943679810e-01</leafValues></_>
        <_>
          <internalNodes>
            0 -1 57 1.3049214612692595e-03</internalNodes>
          <leafValues>
            -1.9738531112670898e-01 3.4436574578285217e-01</leafValues></_>
        <_>
          <internalNodes>
            0 -1 113 -2.8108991682529449e-03</internalNodes>
          <leafValues>
            3.7888428568840027e-01 -1.6062445938587189e-01</leafValues></_>
        <_>
          <internalNodes>
            0 -1 118 -9.9841598421335220e-03</internalNodes>
          <leafValues>
            4.1249272227287292e-01 -1.7131508886814117e-01</leafValues></_>
        <_>
          <internalNodes>
            0 -1 81 -1.6389727534260601e-04</internalNodes>
          <leafValues>
            -3.8555896282196045e-01 1.8400661647319794e-01</leafValues></_>
        <_>
          <internalNodes>
            0 -1 125 1.1128279147669673e-03</internalNodes>
          <leafValues>
            1.5849365293979645e-01 -5.0989264249801636e-01</leafValues></_>
        <_>
          <internalNodes>
            0 -1 6 -1.3886532979086041e-03</internalNodes>
          <leafValues>
            3.1113010644912720e-01 -2.1543182432651520e-01</leafValues></_>
        <_>
          <internalNodes>
            0 -1 70 -3.9167148061096668e-03</internalNodes>
          <leafValues>
            3.8292974233627319e-01 -1.6660806536674500e-01</leafValues></_>
        <_>
          <internalNodes>
            0 -1 32 -1.0087310336530209e-02</internalNodes>
          <leafValues>
            4.3817937374114990e-01 -1.6470359265804291e-01</leafValues></_>
        <_>
          <internalNodes>
            0 -1 50 -2.7418701210990548e-04</internalNodes>
          <leafValues>
            3.4862077236175537e-01 -1.7748610675334930e-01</leafValues></_>
        <_>
          <internalNodes>
            0 -1 31 3.1795161776244640e-03</internalNodes>
          <leafValues>
            1.0769981890916824e-01 -6.4481282234191895e-01</leafValues></_>
        <_>
          <internalNodes>
            0 -1 142 1.7289359122514725e-02</internalNodes>
          <leafValues>
            -1.5476351976394653e-01 5.1299136877059937e-01</leafValues></_>
        <_>
          <internalNodes>
            0 -1 34 1.8101589754223824e-02</internalNodes>
          <leafValues>
            7.9240426421165466e-02 -1.</leafValues></_>
        <_>
          <internalNodes>
            0 -1 155 -4.0770256891846657e-03</internalNodes>
          <leafValues>
            4.4016522169113159e-01 -1.6214419901371002e-01</leafValues></_>
        <_>
          <internalNodes>
            0 -1 134 9.4776200130581856e-03</internalNodes>
          <leafValues>
            1.1226769536733627e-01 -6.2398386001586914e-01</leafValues></_></weakClassifiers></_></stages>
  <features>
    <_>
      <rects>
        <_>
          0 0 2 24 -1.</_>
        <_>
          1 0 1 24 2.</_></rects>
      <tilted>0</tilted></_>
    <_>
      <rects>
        <_>
          0 0 10 18 -1.</_>
        <_>
          0 0 5 9 2.</_>
        <_>
          5 9 5 9 2.</_></rects>
      <tilted>0</tilted></_>
    <_>
      <rects>
        <_>
          0 1 24 1 -1.</_>
        <_>
          12 1 12 1 2.</_></rects>
      <tilted>0</tilted></_>
    <_>
      <rects>
        <_>
          0 6 2 8 -1.</_>
        <_>
          1 6 1 8 2.</_></rects>
      <tilted>0</tilted></_>
    <_>
      <rects>
        <_>
          0 7 3 1 -1.</_>
        <_>
          1 7 1 1 3.</_></rects>
      <tilted>0</tilted></_>
    <_>
      <rects>
        <_>
          0 13 3 3 -1.</_>
        <_>
          0 14 3 1 3.</_></rects>
      <tilted>0</tilted></_>
    <_>
      <rects>
        <_>
          0 14 2 6 -1.</_>
        <_>
          0 14 1 3 2.</_>
        <_>
          1 17 1 3 2.</_></rects>
      <tilted>0</tilted></_>
    <_>
      <rects>
        <_>
          0 14 4 6 -1.</_>
        <_>
          0 14 2 3 2.</_>
        <_>
          2 17 2 3 2.</_></rects>
      <tilted>0</tilted></_>
    <_>
      <rects>
        <_>
          0 15 6 6 -1.</_>
        <_>
          0 15 3 3 2.</_>
        <_>
          3 18 3 3 2.</_></rects>
      <tilted>0</tilted></_>
    <_>
      <rects>
        <_>
          0 15 4 3 -1.</_>
        <_>
          0 16 4 1 3.</_></rects>
      <tilted>0</tilted></_>
    <_>
      <rects>
        <_>
          0 16 24 3 -1.</_>
        <_>
          0 17 24 1 3.</_></rects>
      <tilted>0</tilted></_>
    <_>
      <rects>
        <_>
          0 20 12 3 -1.</_>
        <_>
          4 20 4 3 3.</_></rects>
      <tilted>0</tilted></_>
    <_>
      <rects>
        <_>
          1 1 8 8 -1.</_>
        <_>
          1 1 4 4 2.</_>
        <_>
          5 5 4 4 2.</_></rects>
      <tilted>0</tilted></_>
    <_>
      <rects>
        <_>
          1 4 21 14 -1.</_>
        <_>
          8 4 7 14 3.</_></rects>
      <tilted>0</tilted></_>
    <_>
      <rects>
        <_>
          1 8 3 4 -1.</_>
        <_>
          2 8 1 4 3.</_></rects>
      <tilted>0</tilted></_>
    <_>
      <rects>
        <_>
          1 13 12 5 -1.</_>
        <_>
          5 13 4 5 3.</_></rects>
      <tilted>0</tilted></_>
    <_>
      <rects>
        <_>
          1 14 6 2 -1.</_>
        <_>
          4 14 3 2 2.</_></rects>
      <tilted>0</tilted></_>
    <_>
      <rects>
        <_>
          1 15 4 6 -1.</_>
        <_>
          1 15 2 3 2.</_>
        <_>
          3 18 2 3 2.</_></rects>
      <tilted>0</tilted></_>
    <_>
      <rects>
        <_>
          1 16 8 8 -1.</_>
        <_>
          1 16 4 4 2.</_>
        <_>
          5 20 4 4 2.</_></rects>
      <tilted>0</tilted></_>
    <_>
      <rects>
        <_>
          1 18 1 6 -1.</_>
        <_>
          1 20 1 2 3.</_></rects>
      <tilted>0</tilted></_>
    <_>
      <rects>
        <_>
          1 19 13 3 -1.</_>
        <_>
          1 20 13 1 3.</_></rects>
      <tilted>0</tilted></_>
    <_>
      <rects>
        <_>
          1 22 19 2 -1.</_>
        <_>
          1 23 19 1 2.</_></rects>
      <tilted>0</tilted></_>
    <_>
      <rects>
        <_>
          2 0 6 10 -1.</_>
        <_>
          2 0 3 5 2.</_>
        <_>
          5 5 3 5 2.</_></rects>
      <tilted>0</tilted></_>
    <_>
      <rects>
        <_>
          2 0 12 14 -1.</_>
        <_>
          2 0 6 7 2.</_>
        <_>
          8 7 6 7 2.</_></rects>
      <tilted>0</tilted></_>
    <_>
      <rects>
        <_>
          2 2 2 2 -1.</_>
        <_>
          2 2 1 1 2.</_>
        <_>
          3 3 1 1 2.</_></rects>
      <tilted>0</tilted></_>
    <_>
      <rects>
        <_>
          2 3 4 6 -1.</_>
        <_>
          2 3 2 3 2.</_>
        <_>
          4 6 2 3 2.</_></rects>
      <tilted>0</tilted></_>
    <_>
      <rects>
        <_>
          2 5 22 15 -1.</_>
        <_>
          2 10 22 5 3.</_></rects>
      <tilted>0</tilted></_>
    <_>
      <rects>
        <_>
          2 6 2 2 -1.</_>
        <_>
          2 6 1 1 2.</_>
        <_>
          3 7 1 1 2.</_></rects>
      <tilted>0</tilted></_>
    <_>
      <rects>
        <_>
          2 12 22 10 -1.</_>
        <_>
          2 17 22 5 2.</_></rects>
      <tilted>0</tilted></_>
    <_>
      <rects>
        <_>
          2 13 18 10 -1.</_>
        <_>
          2 13 9 5 2.</_>
        <_>
          11 18 9 5 2.</_></rects>
      <tilted>0</tilted></_>
    <_>
      <rects>
        <_>
          2 21 15 3 -1.</_>
        <_>
          2 22 15 1 3.</_></rects>
      <tilted>0</tilted></_>
    <_>
      <rects>
        <_>
          2 21 20 3 -1.</_>
        <_>
          2 22 20 1 3.</_></rects>
      <tilted>0</tilted></_>
    <_>
      <rects>
        <_>
          3 1 6 10 -1.</_>
        <_>
          3 1 3 5 2.</_>
        <_>
          6 6 3 5 2.</_></rects>
      <tilted>0</tilted></_>
    <_>
      <rects>
        <_>
          3 4 3 2 -1.</_>
        <_>
          4 4 1 2 3.</_></rects>
      <tilted>0</tilted></_>
    <_>
      <rects>
        <_>
          3 4 6 3 -1.</_>
        <_>
          5 4 2 3 3.</_></rects>
      <tilted>0</tilted></_>
    <_>
      <rects>
        <_>
          3 6 4 14 -1.</_>
        <_>
          5 6 2 14 2.</_></rects>
      <tilted>0</tilted></_>
    <_>
      <rects>
        <_>
          3 10 3 3 -1.</_>
        <_>
          3 11 3 1 3.</_></rects>
      <tilted>0</tilted></_>
    <_>
      <rects>
        <_>
          3 10 10 8 -1.</_>
        <_>
          3 10 5 4 2.</_>
        <_>
          8 14 5 4 2.</_></rects>
      <tilted>0</tilted></_>
    <_>
      <rects>
        <_>
          3 11 14 4 -1.</_>
        <_>
          3 11 7 2 2.</_>
        <_>
          10 13 7 2 2.</_></rects>
      <tilted>0</tilted></_>
    <_>
      <rects>
        <_>
          3 13 12 3 -1.</_>
        <_>
          7 13 4 3 3.</_></rects>
      <tilted>0</tilted></_>
    <_>
      <rects>
        <_>
          3 14 8 6 -1.</_>
        <_>
          3 14 4 3 2.</_>
        <_>
          7 17 4 3 2.</_></rects>
      <tilted>0</tilted></_>
    <_>
      <rects>
        <_>
          3 15 1 9 -1.</_>
        <_>
          3 18 1 3 3.</_></rects>
      <tilted>0</tilted></_>
    <_>
      <rects>
        <_>
          3 17 1 3 -1.</_>
        <_>
          3 18 1 1 3.</_></rects>
      <tilted>0</tilted></_>
    <_>
      <rects>
        <_>
          3 17 4 4 -1.</_>
        <_>
          5 17 2 4 2.</_></rects>
      <tilted>0</tilted></_>
    <_>
      <rects>
        <_>
          3 23 15 1 -1.</_>
        <_>
          8 23 5 1 3.</_></rects>
      <tilted>0</tilted></_>
    <_>
      <rects>
        <_>
          4 0 8 2 -1.</_>
        <_>
          4 0 4 1 2.</_>
        <_>
          8 1 4 1 2.</_></rects>
      <tilted>0</tilted></_>
    <_>
      <rects>
        <_>
          4 1 2 6 -1.</_>
        <_>
          4 1 1 3 2.</_>
        <_>
          5 4 1 3 2.</_></rects>
      <tilted>0</tilted></_>
    <_>
      <rects>
        <_>
          4 1 4 6 -1.</_>
        <_>
          4 1 2 3 2.</_>
        <_>
          6 4 2 3 2.</_></rects>
      <tilted>0</tilted></_>
    <_>
      <rects>
        <_>
          4 1 9 4 -1.</_>
        <_>
          4 3 9 2 2.</_></rects>
      <tilted>0</tilted></_>
    <_>
      <rects>
        <_>
          4 2 10 10 -1.</_>
        <_>
          4 2 5 5 2.</_>
        <_>
          9 7 5 5 2.</_></rects>
      <tilted>0</tilted></_>
    <_>
      <rects>
        <_>
          4 12 2 2 -1.</_>
        <_>
          4 12 1 1 2.</_>
        <_>
          5 13 1 1 2.</_></rects>
      <tilted>0</tilted></_>
    <_>
      <rects>
        <_>
          4 12 1 10 -1.</_>
        <_>
          4 17 1 5 2.</_></rects>
      <tilted>0</tilted></_>
    <_>
      <rects>
        <_>
          4 12 6 8 -1.</_>
        <_>
          4 12 3 4 2.</_>
        <_>
          7 16 3 4 2.</_></rects>
      <tilted>0</tilted></_>
    <_>
      <rects>
        <_>
          4 14 9 1 -1.</_>
        <_>
          7 14 3 1 3.</_></rects>
      <tilted>0</tilted></_>
    <_>
      <rects>
        <_>
          4 15 2 2 -1.</_>
        <_>
          4 15 1 1 2.</_>
        <_>
          5 16 1 1 2.</_></rects>
      <tilted>0</tilted></_>
    <_>
      <rects>
        <_>
          4 15 10 8 -1.</_>
        <_>
          4 19 10 4 2.</_></rects>
      <tilted>0</tilted></_>
    <_>
      <rects>
        <_>
          4 17 6 6 -1.</_>
        <_>
          4 17 3 3 2.</_>
        <_>
          7 20 3 3 2.</_></rects>
      <tilted>0</tilted></_>
    <_>
      <rects>
        <_>
          5 1 2 3 -1.</_>
        <_>
          5 2 2 1 3.</_></rects>
      <tilted>0</tilted></_>
    <_>
      <rects>
        <_>
          5 7 6 2 -1.</_>
        <_>
          5 7 3 1 2.</_>
        <_>
          8 8 3 1 2.</_></rects>
      <tilted>0</tilted></_>
    <_>
      <rects>
        <_>
          5 17 18 2 -1.</_>
        <_>
          5 17 9 1 2.</_>
        <_>
          14 18 9 1 2.</_></rects>
      <tilted>0</tilted></_>
    <_>
      <rects>
        <_>
          5 18 12 2 -1.</_>
        <_>
          5 18 6 1 2.</_>
        <_>
          11 19 6 1 2.</_></rects>
      <tilted>0</tilted></_>
    <_>
      <rects>
        <_>
          5 20 1 3 -1.</_>
        <_>
          5 21 1 1 3.</_></rects>
      <tilted>0</tilted></_>
    <_>
      <rects>
        <_>
          6 0 3 6 -1.</_>
        <_>
          6 2 3 2 3.</_></rects>
      <tilted>0</tilted></_>
    <_>
      <rects>
        <_>
          6 0 18 2 -1.</_>
        <_>
          6 0 9 1 2.</_>
        <_>
          15 1 9 1 2.</_></rects>
      <tilted>0</tilted></_>
    <_>
      <rects>
        <_>
          6 0 11 8 -1.</_>
        <_>
          6 4 11 4 2.</_></rects>
      <tilted>0</tilted></_>
    <_>
      <rects>
        <_>
          6 1 3 18 -1.</_>
        <_>
          6 7 3 6 3.</_></rects>
      <tilted>0</tilted></_>
    <_>
      <rects>
        <_>
          6 2 1 10 -1.</_>
        <_>
          6 7 1 5 2.</_></rects>
      <tilted>0</tilted></_>
    <_>
      <rects>
        <_>
          6 9 18 6 -1.</_>
        <_>
          6 12 18 3 2.</_></rects>
      <tilted>0</tilted></_>
    <_>
      <rects>
        <_>
          6 14 10 2 -1.</_>
        <_>
          6 15 10 1 2.</_></rects>
      <tilted>0</tilted></_>
    <_>
      <rects>
        <_>
          7 0 3 2 -1.</_>
        <_>
          8 0 1 2 3.</_></rects>
      <tilted>0</tilted></_>
    <_>
      <rects>
        <_>
          7 1 9 3 -1.</_>
        <_>
          7 2 9 1 3.</_></rects>
      <tilted>0</tilted></_>
    <_>
      <rects>
        <_>
          7 17 3 6 -1.</_>
        <_>
          8 17 1 6 3.</_></rects>
      <tilted>0</tilted></_>
    <_>
      <rects>
        <_>
          8 1 16 20 -1.</_>
        <_>
          8 1 8 10 2.</_>
        <_>
          16 11 8 10 2.</_></rects>
      <tilted>0</tilted></_>
    <_>
      <rects>
        <_>
          8 2 14 10 -1.</_>
        <_>
          8 2 7 5 2.</_>
        <_>
          15 7 7 5 2.</_></rects>
      <tilted>0</tilted></_>
    <_>
      <rects>
        <_>
          8 4 13 20 -1.</_>
        <_>
          8 14 13 10 2.</_></rects>
      <tilted>0</tilted></_>
    <_>
      <rects>
        <_>
          8 5 6 15 -1.</_>
        <_>
          10 5 2 15 3.</_></rects>
      <tilted>0</tilted></_>
    <_>
      <rects>
        <_>
          8 8 16 7 -1.</_>
        <_>
          16 8 8 7 2.</_></rects>
      <tilted>0</tilted></_>
    <_>
      <rects>
        <_>
          8 10 6 1 -1.</_>
        <_>
          10 10 2 1 3.</_></rects>
      <tilted>0</tilted></_>
    <_>
      <rects>
        <_>
          8 13 16 1 -1.</_>
        <_>
          16 13 8 1 2.</_></rects>
      <tilted>0</tilted></_>
    <_>
      <rects>
        <_>
          8 22 12 2 -1.</_>
        <_>
          8 23 12 1 2.</_></rects>
      <tilted>0</tilted></_>
    <_>
      <rects>
        <_>
          9 0 2 6 -1.</_>
        <_>
          9 0 1 3 2.</_>
        <_>
          10 3 1 3 2.</_></rects>
      <tilted>0</tilted></_>
    <_>
      <rects>
        <_>
          9 1 2 1 -1.</_>
        <_>
          10 1 1 1 2.</_></rects>
      <tilted>0</tilted></_>
    <_>
      <rects>
        <_>
          9 1 6 3 -1.</_>
        <_>
          11 1 2 3 3.</_></rects>
      <tilted>0</tilted></_>
    <_>
      <rects>
        <_>
          9 1 15 7 -1.</_>
        <_>
          14 1 5 7 3.</_></rects>
      <tilted>0</tilted></_>
    <_>
      <rects>
        <_>
          9 8 3 5 -1.</_>
        <_>
          10 8 1 5 3.</_></rects>
      <tilted>0</tilted></_>
    <_>
      <rects>
        <_>
          9 9 1 3 -1.</_>
        <_>
          9 10 1 1 3.</_></rects>
      <tilted>0</tilted></_>
    <_>
      <rects>
        <_>
          10 6 4 6 -1.</_>
        <_>
          10 6 2 3 2.</_>
        <_>
          12 9 2 3 2.</_></rects>
      <tilted>0</tilted></_>
    <_>
      <rects>
        <_>
          10 8 4 4 -1.</_>
        <_>
          12 8 2 4 2.</_></rects>
      <tilted>0</tilted></_>
    <_>
      <rects>
        <_>
          10 10 2 3 -1.</_>
        <_>
          10 11 2 1 3.</_></rects>
      <tilted>0</tilted></_>
    <_>
      <rects>
        <_>
          10 16 5 6 -1.</_>
        <_>
          10 19 5 3 2.</_></rects>
      <tilted>0</tilted></_>
    <_>
      <rects>
        <_>
          10 21 6 2 -1.</_>
        <_>
          12 21 2 2 3.</_></rects>
      <tilted>0</tilted></_>
    <_>
      <rects>
        <_>
          11 0 8 4 -1.</_>
        <_>
          11 0 4 2 2.</_>
        <_>
          15 2 4 2 2.</_></rects>
      <tilted>0</tilted></_>
    <_>
      <rects>
        <_>
          11 0 10 2 -1.</_>
        <_>
          11 1 10 1 2.</_></rects>
      <tilted>0</tilted></_>
    <_>
      <rects>
        <_>
          11 1 1 2 -1.</_>
        <_>
          11 2 1 1 2.</_></rects>
      <tilted>0</tilted></_>
    <_>
      <rects>
        <_>
          11 17 3 6 -1.</_>
        <_>
          11 20 3 3 2.</_></rects>
      <tilted>0</tilted></_>
    <_>
      <rects>
        <_>
          12 0 8 2 -1.</_>
        <_>
          12 0 4 1 2.</_>
        <_>
          16 1 4 1 2.</_></rects>
      <tilted>0</tilted></_>
    <_>
      <rects>
        <_>
          12 8 10 12 -1.</_>
        <_>
          12 14 10 6 2.</_></rects>
      <tilted>0</tilted></_>
    <_>
      <rects>
        <_>
          13 3 2 6 -1.</_>
        <_>
          13 3 1 3 2.</_>
        <_>
          14 6 1 3 2.</_></rects>
      <tilted>0</tilted></_>
    <_>
      <rects>
        <_>
          13 20 2 2 -1.</_>
        <_>
          13 20 1 1 2.</_>
        <_>
          14 21 1 1 2.</_></rects>
      <tilted>0</tilted></_>
    <_>
      <rects>
        <_>
          14 1 2 2 -1.</_>
        <_>
          14 2 2 1 2.</_></rects>
      <tilted>0</tilted></_>
    <_>
      <rects>
        <_>
          14 5 6 14 -1.</_>
        <_>
          17 5 3 14 2.</_></rects>
      <tilted>0</tilted></_>
    <_>
      <rects>
        <_>
          14 9 6 6 -1.</_>
        <_>
          14 9 3 3 2.</_>
        <_>
          17 12 3 3 2.</_></rects>
      <tilted>0</tilted></_>
    <_>
      <rects>
        <_>
          14 15 3 6 -1.</_>
        <_>
          15 15 1 6 3.</_></rects>
      <tilted>0</tilted></_>
    <_>
      <rects>
        <_>
          14 21 3 1 -1.</_>
        <_>
          15 21 1 1 3.</_></rects>
      <tilted>0</tilted></_>
    <_>
      <rects>
        <_>
          14 21 9 2 -1.</_>
        <_>
          17 21 3 2 3.</_></rects>
      <tilted>0</tilted></_>
    <_>
      <rects>
        <_>
          14 23 3 1 -1.</_>
        <_>
          15 23 1 1 3.</_></rects>
      <tilted>0</tilted></_>
    <_>
      <rects>
        <_>
          15 7 6 4 -1.</_>
        <_>
          18 7 3 4 2.</_></rects>
      <tilted>0</tilted></_>
    <_>
      <rects>
        <_>
          15 11 3 12 -1.</_>
        <_>
          15 15 3 4 3.</_></rects>
      <tilted>0</tilted></_>
    <_>
      <rects>
        <_>
          15 14 8 2 -1.</_>
        <_>
          19 14 4 2 2.</_></rects>
      <tilted>0</tilted></_>
    <_>
      <rects>
        <_>
          15 16 3 6 -1.</_>
        <_>
          15 19 3 3 2.</_></rects>
      <tilted>0</tilted></_>
    <_>
      <rects>
        <_>
          15 21 9 3 -1.</_>
        <_>
          18 21 3 3 3.</_></rects>
      <tilted>0</tilted></_>
    <_>
      <rects>
        <_>
          16 0 6 10 -1.</_>
        <_>
          16 5 6 5 2.</_></rects>
      <tilted>0</tilted></_>
    <_>
      <rects>
        <_>
          16 2 3 18 -1.</_>
        <_>
          16 8 3 6 3.</_></rects>
      <tilted>0</tilted></_>
    <_>
      <rects>
        <_>
          16 3 1 6 -1.</_>
        <_>
          16 5 1 2 3.</_></rects>
      <tilted>0</tilted></_>
    <_>
      <rects>
        <_>
          16 3 8 5 -1.</_>
        <_>
          20 3 4 5 2.</_></rects>
      <tilted>0</tilted></_>
    <_>
      <rects>
        <_>
          16 6 6 1 -1.</_>
        <_>
          18 6 2 1 3.</_></rects>
      <tilted>0</tilted></_>
    <_>
      <rects>
        <_>
          16 20 6 4 -1.</_>
        <_>
          18 20 2 4 3.</_></rects>
      <tilted>0</tilted></_>
    <_>
      <rects>
        <_>
          16 21 3 3 -1.</_>
        <_>
          17 21 1 3 3.</_></rects>
      <tilted>0</tilted></_>
    <_>
      <rects>
        <_>
          17 0 4 8 -1.</_>
        <_>
          17 0 2 4 2.</_>
        <_>
          19 4 2 4 2.</_></rects>
      <tilted>0</tilted></_>
    <_>
      <rects>
        <_>
          17 0 4 10 -1.</_>
        <_>
          19 0 2 10 2.</_></rects>
      <tilted>0</tilted></_>
    <_>
      <rects>
        <_>
          17 0 6 16 -1.</_>
        <_>
          17 0 3 8 2.</_>
        <_>
          20 8 3 8 2.</_></rects>
      <tilted>0</tilted></_>
    <_>
      <rects>
        <_>
          17 1 7 6 -1.</_>
        <_>
          17 4 7 3 2.</_></rects>
      <tilted>0</tilted></_>
    <_>
      <rects>
        <_>
          17 3 7 2 -1.</_>
        <_>
          17 4 7 1 2.</_></rects>
      <tilted>0</tilted></_>
    <_>
      <rects>
        <_>
          17 4 6 10 -1.</_>
        <_>
          17 4 3 5 2.</_>
        <_>
          20 9 3 5 2.</_></rects>
      <tilted>0</tilted></_>
    <_>
      <rects>
        <_>
          17 22 2 2 -1.</_>
        <_>
          17 22 1 1 2.</_>
        <_>
          18 23 1 1 2.</_></rects>
      <tilted>0</tilted></_>
    <_>
      <rects>
        <_>
          18 0 3 2 -1.</_>
        <_>
          19 0 1 2 3.</_></rects>
      <tilted>0</tilted></_>
    <_>
      <rects>
        <_>
          18 4 6 3 -1.</_>
        <_>
          20 4 2 3 3.</_></rects>
      <tilted>0</tilted></_>
    <_>
      <rects>
        <_>
          18 5 6 17 -1.</_>
        <_>
          20 5 2 17 3.</_></rects>
      <tilted>0</tilted></_>
    <_>
      <rects>
        <_>
          18 6 2 2 -1.</_>
        <_>
          18 7 2 1 2.</_></rects>
      <tilted>0</tilted></_>
    <_>
      <rects>
        <_>
          19 3 3 1 -1.</_>
        <_>
          20 3 1 1 3.</_></rects>
      <tilted>0</tilted></_>
    <_>
      <rects>
        <_>
          19 3 4 2 -1.</_>
        <_>
          19 4 4 1 2.</_></rects>
      <tilted>0</tilted></_>
    <_>
      <rects>
        <_>
          19 6 4 10 -1.</_>
        <_>
          21 6 2 10 2.</_></rects>
      <tilted>0</tilted></_>
    <_>
      <rects>
        <_>
          19 13 2 2 -1.</_>
        <_>
          19 13 1 1 2.</_>
        <_>
          20 14 1 1 2.</_></rects>
      <tilted>0</tilted></_>
    <_>
      <rects>
        <_>
          19 13 4 6 -1.</_>
        <_>
          19 15 4 2 3.</_></rects>
      <tilted>0</tilted></_>
    <_>
      <rects>
        <_>
          19 16 5 6 -1.</_>
        <_>
          19 18 5 2 3.</_></rects>
      <tilted>0</tilted></_>
    <_>
      <rects>
        <_>
          19 20 4 4 -1.</_>
        <_>
          21 20 2 4 2.</_></rects>
      <tilted>0</tilted></_>
    <_>
      <rects>
        <_>
          19 20 5 3 -1.</_>
        <_>
          19 21 5 1 3.</_></rects>
      <tilted>0</tilted></_>
    <_>
      <rects>
        <_>
          20 6 4 2 -1.</_>
        <_>
          22 6 2 2 2.</_></rects>
      <tilted>0</tilted></_>
    <_>
      <rects>
        <_>
          20 6 4 10 -1.</_>
        <_>
          20 6 2 5 2.</_>
        <_>
          22 11 2 5 2.</_></rects>
      <tilted>0</tilted></_>
    <_>
      <rects>
        <_>
          20 7 3 3 -1.</_>
        <_>
          20 8 3 1 3.</_></rects>
      <tilted>0</tilted></_>
    <_>
      <rects>
        <_>
          20 8 4 10 -1.</_>
        <_>
          20 8 2 5 2.</_>
        <_>
          22 13 2 5 2.</_></rects>
      <tilted>0</tilted></_>
    <_>
      <rects>
        <_>
          20 8 3 4 -1.</_>
        <_>
          20 10 3 2 2.</_></rects>
      <tilted>0</tilted></_>
    <_>
      <rects>
        <_>
          20 10 4 6 -1.</_>
        <_>
          22 10 2 6 2.</_></rects>
      <tilted>0</tilted></_>
    <_>
      <rects>
        <_>
          20 10 4 3 -1.</_>
        <_>
          20 11 4 1 3.</_></rects>
      <tilted>0</tilted></_>
    <_>
      <rects>
        <_>
          20 16 3 3 -1.</_>
        <_>
          20 17 3 1 3.</_></rects>
      <tilted>0</tilted></_>
    <_>
      <rects>
        <_>
          20 22 1 2 -1.</_>
        <_>
          20 23 1 1 2.</_></rects>
      <tilted>0</tilted></_>
    <_>
      <rects>
        <_>
          21 3 3 1 -1.</_>
        <_>
          22 3 1 1 3.</_></rects>
      <tilted>0</tilted></_>
    <_>
      <rects>
        <_>
          21 3 2 8 -1.</_>
        <_>
          21 3 1 4 2.</_>
        <_>
          22 7 1 4 2.</_></rects>
      <tilted>0</tilted></_>
    <_>
      <rects>
        <_>
          21 7 1 3 -1.</_>
        <_>
          21 8 1 1 3.</_></rects>
      <tilted>0</tilted></_>
    <_>
      <rects>
        <_>
          21 9 3 3 -1.</_>
        <_>
          21 10 3 1 3.</_></rects>
      <tilted>0</tilted></_>
    <_>
      <rects>
        <_>
          21 12 2 3 -1.</_>
        <_>
          21 13 2 1 3.</_></rects>
      <tilted>0</tilted></_>
    <_>
      <rects>
        <_>
          21 13 3 2 -1.</_>
        <_>
          21 14 3 1 2.</_></rects>
      <tilted>0</tilted></_>
    <_>
      <rects>
        <_>
          21 15 2 8 -1.</_>
        <_>
          21 15 1 4 2.</_>
        <_>
          22 19 1 4 2.</_></rects>
      <tilted>0</tilted></_>
    <_>
      <rects>
        <_>
          22 4 2 6 -1.</_>
        <_>
          23 4 1 6 2.</_></rects>
      <tilted>0</tilted></_>
    <_>
      <rects>
        <_>
          22 7 2 12 -1.</_>
        <_>
          22 7 1 6 2.</_>
        <_>
          23 13 1 6 2.</_></rects>
      <tilted>0</tilted></_>
    <_>
      <rects>
        <_>
          22 13 2 8 -1.</_>
        <_>
          23 13 1 8 2.</_></rects>
      <tilted>0</tilted></_>
    <_>
      <rects>
        <_>
          22 20 2 1 -1.</_>
        <_>
          23 20 1 1 2.</_></rects>
      <tilted>0</tilted></_>
    <_>
      <rects>
        <_>
          23 8 1 10 -1.</_>
        <_>
          23 13 1 5 2.</_></rects>
      <tilted>0</tilted></_></features></cascade>
</opencv_storage>
