<?xml version="1.0"?>
<opencv_storage>
<stage5>
  <maxWeakCount>10</maxWeakCount>
  <stageThreshold>-1.8117985725402832e+00</stageThreshold>
  <weakClassifiers>
    <_>
      <internalNodes>
        0 -1 148491 -4.9979310482740402e-02</internalNodes>
      <leafValues>
        -4.0384614467620850e-01 -8.6144578456878662e-01</leafValues></_>
    <_>
      <internalNodes>
        0 -1 91662 -5.5910430848598480e-02</internalNodes>
      <leafValues>
        1.3556963205337524e-01 -4.9189680814743042e-01</leafValues></_>
    <_>
      <internalNodes>
        0 -1 158755 -2.8121457435190678e-03</internalNodes>
      <leafValues>
        -9.3088811635971069e-01 6.7074492573738098e-02</leafValues></_>
    <_>
      <internalNodes>
        0 -1 160458 -6.3191415392793715e-05</internalNodes>
      <leafValues>
        3.6082279682159424e-01 -2.9231354594230652e-01</leafValues></_>
    <_>
      <internalNodes>
        0 -1 11574 -2.6252665556967258e-03</internalNodes>
      <leafValues>
        -8.1575357913970947e-01 9.3351930379867554e-02</leafValues></_>
    <_>
      <internalNodes>
        0 -1 35692 -1.1296319961547852e-01</internalNodes>
      <leafValues>
        6.4479625225067139e-01 -1.5836246311664581e-01</leafValues></_>
    <_>
      <internalNodes>
        0 -1 160677 2.3860428482294083e-03</internalNodes>
      <leafValues>
        1.0586475580930710e-01 -8.9508563280105591e-01</leafValues></_>
    <_>
      <internalNodes>
        0 -1 47852 -2.2630048915743828e-03</internalNodes>
      <leafValues>
        3.0767059326171875e-01 -2.7309191226959229e-01</leafValues></_>
    <_>
      <internalNodes>
        0 -1 159093 2.2737309336662292e-03</internalNodes>
      <leafValues>
        1.0645323991775513e-01 -7.7972728013992310e-01</leafValues></_>
    <_>
      <internalNodes>
        0 -1 148201 1.2846430763602257e-04</internalNodes>
      <leafValues>
        1.9056764245033264e-01 -4.3222588300704956e-01</leafValues></_></weakClassifiers></stage5>
</opencv_storage>
