<?xml version="1.0"?>
<opencv_storage>
<stage2>
  <maxWeakCount>7</maxWeakCount>
  <stageThreshold>-1.7092672586441040e+00</stageThreshold>
  <weakClassifiers>
    <_>
      <internalNodes>
        0 -1 26238 7.6567292213439941e-02</internalNodes>
      <leafValues>
        -8.7654322385787964e-01 -3.7500000000000000e-01</leafValues></_>
    <_>
      <internalNodes>
        0 -1 6662 -8.0140522914007306e-04</internalNodes>
      <leafValues>
        2.1972508728504181e-01 -5.3635591268539429e-01</leafValues></_>
    <_>
      <internalNodes>
        0 -1 161484 2.4810400791466236e-03</internalNodes>
      <leafValues>
        -3.0978128314018250e-01 4.3356084823608398e-01</leafValues></_>
    <_>
      <internalNodes>
        0 -1 79257 -1.0368574876338243e-03</internalNodes>
      <leafValues>
        3.6129498481750488e-01 -3.9475440979003906e-01</leafValues></_>
    <_>
      <internalNodes>
        0 -1 27743 -5.0029851990984753e-05</internalNodes>
      <leafValues>
        3.7498351931571960e-01 -3.6323997378349304e-01</leafValues></_>
    <_>
      <internalNodes>
        0 -1 120800 -8.0870613455772400e-03</internalNodes>
      <leafValues>
        4.2914187908172607e-01 -3.1858164072036743e-01</leafValues></_>
    <_>
      <internalNodes>
        0 -1 139172 -1.6986500704661012e-03</internalNodes>
      <leafValues>
        3.3393979072570801e-01 -3.9074179530143738e-01</leafValues></_></weakClassifiers></stage2>
</opencv_storage>
